digraph Tree {
node [shape=box, style="filled, rounded", color="black", fontname=helvetica] ;
edge [fontname=helvetica] ;
0 [label=<Shell.weight &le; 0.144<br/>gini = 0.895<br/>samples = 4177<br/>value = [1, 634, 487, 267, 203, 126, 103, 67, 58, 42, 32<br/>1, 26, 14, 6, 9, 2, 1, 1, 2, 1, 15, 57, 115<br/>259, 391, 568, 689]<br/>class = 24>, fillcolor="#e55b3904"] ;
1 [label=<Diameter &le; 0.222<br/>gini = 0.839<br/>samples = 1185<br/>value = [1, 63, 32, 20, 12, 3, 3, 4, 0, 1, 0, 1, 0, 0<br/>0, 0, 0, 0, 0, 0, 0, 15, 57, 115, 241, 306<br/>202, 109]<br/>class = 27>, fillcolor="#e5396112"] ;
0 -> 1 [labeldistance=2.5, labelangle=45, headlabel="True"] ;
2 [label=<Shell.weight &le; 0.022<br/>gini = 0.757<br/>samples = 219<br/>value = [1, 0, 0, 0, 0, 0, 0, 0, 0, 0, 0, 1, 0, 0<br/>0, 0, 0, 0, 0, 0, 0, 15, 53, 78, 47, 17, 6<br/>1]<br/>class = 29>, fillcolor="#e539ac26"] ;
1 -> 2 ;
3 [label=<Whole.weight &le; 0.023<br/>gini = 0.69<br/>samples = 96<br/>value = [1, 0, 0, 0, 0, 0, 0, 0, 0, 0, 0, 1, 0, 0<br/>0, 0, 0, 0, 0, 0, 0, 15, 43, 27, 7, 2, 0, 0]<br/>class = 23>, fillcolor="#e539d13b"] ;
2 -> 3 ;
4 [label=<Height &le; 0.023<br/>gini = 0.642<br/>samples = 18<br/>value = [1, 0, 0, 0, 0, 0, 0, 0, 0, 0, 0, 1, 0, 0<br/>0, 0, 0, 0, 0, 0, 0, 8, 7, 1, 0, 0, 0, 0]<br/>class = 26>, fillcolor="#d739e517"] ;
3 -> 4 ;
5 [label=<Length &le; 0.117<br/>gini = 0.375<br/>samples = 4<br/>value = [1, 0, 0, 0, 0, 0, 0, 0, 0, 0, 0, 0, 0, 0<br/>0, 0, 0, 0, 0, 0, 0, 0, 3, 0, 0, 0, 0, 0]<br/>class = 23>, fillcolor="#e539d1aa"] ;
4 -> 5 ;
6 [label=<gini = 0.0<br/>samples = 1<br/>value = [1, 0, 0, 0, 0, 0, 0, 0, 0, 0, 0, 0, 0, 0<br/>0, 0, 0, 0, 0, 0, 0, 0, 0, 0, 0, 0, 0, 0]<br/>class = 15>, fillcolor="#e58139ff"] ;
5 -> 6 ;
7 [label=<gini = 0.0<br/>samples = 3<br/>value = [0, 0, 0, 0, 0, 0, 0, 0, 0, 0, 0, 0, 0, 0<br/>0, 0, 0, 0, 0, 0, 0, 0, 3, 0, 0, 0, 0, 0]<br/>class = 23>, fillcolor="#e539d1ff"] ;
5 -> 7 ;
8 [label=<Viscera.weight &le; 0.003<br/>gini = 0.582<br/>samples = 14<br/>value = [0, 0, 0, 0, 0, 0, 0, 0, 0, 0, 0, 1, 0, 0<br/>0, 0, 0, 0, 0, 0, 0, 8, 4, 1, 0, 0, 0, 0]<br/>class = 26>, fillcolor="#d739e566"] ;
4 -> 8 ;
9 [label=<gini = 0.0<br/>samples = 4<br/>value = [0, 0, 0, 0, 0, 0, 0, 0, 0, 0, 0, 0, 0, 0<br/>0, 0, 0, 0, 0, 0, 0, 4, 0, 0, 0, 0, 0, 0]<br/>class = 26>, fillcolor="#d739e5ff"] ;
8 -> 9 ;
10 [label=<Length &le; 0.162<br/>gini = 0.66<br/>samples = 10<br/>value = [0, 0, 0, 0, 0, 0, 0, 0, 0, 0, 0, 1, 0, 0<br/>0, 0, 0, 0, 0, 0, 0, 4, 4, 1, 0, 0, 0, 0]<br/>class = 26>, fillcolor="#d739e500"] ;
8 -> 10 ;
11 [label=<Diameter &le; 0.115<br/>gini = 0.612<br/>samples = 7<br/>value = [0, 0, 0, 0, 0, 0, 0, 0, 0, 0, 0, 1, 0, 0<br/>0, 0, 0, 0, 0, 0, 0, 1, 4, 1, 0, 0, 0, 0]<br/>class = 23>, fillcolor="#e539d17f"] ;
10 -> 11 ;
12 [label=<Shucked.weight &le; 0.005<br/>gini = 0.5<br/>samples = 6<br/>value = [0, 0, 0, 0, 0, 0, 0, 0, 0, 0, 0, 1, 0, 0<br/>0, 0, 0, 0, 0, 0, 0, 1, 4, 0, 0, 0, 0, 0]<br/>class = 23>, fillcolor="#e539d199"] ;
11 -> 12 ;
13 [label=<gini = 0.0<br/>samples = 1<br/>value = [0, 0, 0, 0, 0, 0, 0, 0, 0, 0, 0, 1, 0, 0<br/>0, 0, 0, 0, 0, 0, 0, 0, 0, 0, 0, 0, 0, 0]<br/>class = 18>, fillcolor="#39e5bdff"] ;
12 -> 13 ;
14 [label=<Whole.weight &le; 0.018<br/>gini = 0.32<br/>samples = 5<br/>value = [0, 0, 0, 0, 0, 0, 0, 0, 0, 0, 0, 0, 0, 0<br/>0, 0, 0, 0, 0, 0, 0, 1, 4, 0, 0, 0, 0, 0]<br/>class = 23>, fillcolor="#e539d1bf"] ;
12 -> 14 ;
15 [label=<gini = 0.0<br/>samples = 3<br/>value = [0, 0, 0, 0, 0, 0, 0, 0, 0, 0, 0, 0, 0, 0<br/>0, 0, 0, 0, 0, 0, 0, 0, 3, 0, 0, 0, 0, 0]<br/>class = 23>, fillcolor="#e539d1ff"] ;
14 -> 15 ;
16 [label=<gini = 0.5<br/>samples = 2<br/>value = [0, 0, 0, 0, 0, 0, 0, 0, 0, 0, 0, 0, 0, 0<br/>0, 0, 0, 0, 0, 0, 0, 1, 1, 0, 0, 0, 0, 0]<br/>class = 26>, fillcolor="#d739e500"] ;
14 -> 16 ;
17 [label=<gini = 0.0<br/>samples = 1<br/>value = [0, 0, 0, 0, 0, 0, 0, 0, 0, 0, 0, 0, 0, 0<br/>0, 0, 0, 0, 0, 0, 0, 0, 0, 1, 0, 0, 0, 0]<br/>class = 29>, fillcolor="#e539acff"] ;
11 -> 17 ;
18 [label=<gini = 0.0<br/>samples = 3<br/>value = [0, 0, 0, 0, 0, 0, 0, 0, 0, 0, 0, 0, 0, 0<br/>0, 0, 0, 0, 0, 0, 0, 3, 0, 0, 0, 0, 0, 0]<br/>class = 26>, fillcolor="#d739e5ff"] ;
10 -> 18 ;
19 [label=<Length &le; 0.243<br/>gini = 0.659<br/>samples = 78<br/>value = [0, 0, 0, 0, 0, 0, 0, 0, 0, 0, 0, 0, 0, 0<br/>0, 0, 0, 0, 0, 0, 0, 7, 36, 26, 7, 2, 0, 0]<br/>class = 23>, fillcolor="#e539d131"] ;
3 -> 19 ;
20 [label=<Viscera.weight &le; 0.013<br/>gini = 0.683<br/>samples = 69<br/>value = [0, 0, 0, 0, 0, 0, 0, 0, 0, 0, 0, 0, 0, 0<br/>0, 0, 0, 0, 0, 0, 0, 7, 28, 25, 7, 2, 0, 0]<br/>class = 23>, fillcolor="#e539d111"] ;
19 -> 20 ;
21 [label=<Shucked.weight &le; 0.009<br/>gini = 0.645<br/>samples = 54<br/>value = [0, 0, 0, 0, 0, 0, 0, 0, 0, 0, 0, 0, 0, 0<br/>0, 0, 0, 0, 0, 0, 0, 6, 27, 16, 3, 2, 0, 0]<br/>class = 23>, fillcolor="#e539d14a"] ;
20 -> 21 ;
22 [label=<Height &le; 0.053<br/>gini = 0.375<br/>samples = 4<br/>value = [0, 0, 0, 0, 0, 0, 0, 0, 0, 0, 0, 0, 0, 0<br/>0, 0, 0, 0, 0, 0, 0, 0, 0, 3, 1, 0, 0, 0]<br/>class = 29>, fillcolor="#e539acaa"] ;
21 -> 22 ;
23 [label=<gini = 0.0<br/>samples = 3<br/>value = [0, 0, 0, 0, 0, 0, 0, 0, 0, 0, 0, 0, 0, 0<br/>0, 0, 0, 0, 0, 0, 0, 0, 0, 3, 0, 0, 0, 0]<br/>class = 29>, fillcolor="#e539acff"] ;
22 -> 23 ;
24 [label=<gini = 0.0<br/>samples = 1<br/>value = [0, 0, 0, 0, 0, 0, 0, 0, 0, 0, 0, 0, 0, 0<br/>0, 0, 0, 0, 0, 0, 0, 0, 0, 0, 1, 0, 0, 0]<br/>class = 2>, fillcolor="#e53986ff"] ;
22 -> 24 ;
25 [label=<Shell.weight &le; 0.009<br/>gini = 0.623<br/>samples = 50<br/>value = [0, 0, 0, 0, 0, 0, 0, 0, 0, 0, 0, 0, 0, 0<br/>0, 0, 0, 0, 0, 0, 0, 6, 27, 13, 2, 2, 0, 0]<br/>class = 23>, fillcolor="#e539d160"] ;
21 -> 25 ;
26 [label=<gini = 0.0<br/>samples = 7<br/>value = [0, 0, 0, 0, 0, 0, 0, 0, 0, 0, 0, 0, 0, 0<br/>0, 0, 0, 0, 0, 0, 0, 0, 7, 0, 0, 0, 0, 0]<br/>class = 23>, fillcolor="#e539d1ff"] ;
25 -> 26 ;
27 [label=<Shucked.weight &le; 0.012<br/>gini = 0.668<br/>samples = 43<br/>value = [0, 0, 0, 0, 0, 0, 0, 0, 0, 0, 0, 0, 0, 0<br/>0, 0, 0, 0, 0, 0, 0, 6, 20, 13, 2, 2, 0, 0]<br/>class = 23>, fillcolor="#e539d13c"] ;
25 -> 27 ;
28 [label=<Viscera.weight &le; 0.008<br/>gini = 0.469<br/>samples = 8<br/>value = [0, 0, 0, 0, 0, 0, 0, 0, 0, 0, 0, 0, 0, 0<br/>0, 0, 0, 0, 0, 0, 0, 0, 3, 5, 0, 0, 0, 0]<br/>class = 29>, fillcolor="#e539ac66"] ;
27 -> 28 ;
29 [label=<gini = 0.278<br/>samples = 6<br/>value = [0, 0, 0, 0, 0, 0, 0, 0, 0, 0, 0, 0, 0, 0<br/>0, 0, 0, 0, 0, 0, 0, 0, 1, 5, 0, 0, 0, 0]<br/>class = 29>, fillcolor="#e539accc"] ;
28 -> 29 ;
30 [label=<gini = 0.0<br/>samples = 2<br/>value = [0, 0, 0, 0, 0, 0, 0, 0, 0, 0, 0, 0, 0, 0<br/>0, 0, 0, 0, 0, 0, 0, 0, 2, 0, 0, 0, 0, 0]<br/>class = 23>, fillcolor="#e539d1ff"] ;
28 -> 30 ;
31 [label=<Shell.weight &le; 0.018<br/>gini = 0.676<br/>samples = 35<br/>value = [0, 0, 0, 0, 0, 0, 0, 0, 0, 0, 0, 0, 0, 0<br/>0, 0, 0, 0, 0, 0, 0, 6, 17, 8, 2, 2, 0, 0]<br/>class = 23>, fillcolor="#e539d155"] ;
27 -> 31 ;
32 [label=<gini = 0.642<br/>samples = 30<br/>value = [0, 0, 0, 0, 0, 0, 0, 0, 0, 0, 0, 0, 0, 0<br/>0, 0, 0, 0, 0, 0, 0, 6, 16, 5, 2, 1, 0, 0]<br/>class = 23>, fillcolor="#e539d16a"] ;
31 -> 32 ;
33 [label=<gini = 0.56<br/>samples = 5<br/>value = [0, 0, 0, 0, 0, 0, 0, 0, 0, 0, 0, 0, 0, 0<br/>0, 0, 0, 0, 0, 0, 0, 0, 1, 3, 0, 1, 0, 0]<br/>class = 29>, fillcolor="#e539ac7f"] ;
31 -> 33 ;
34 [label=<Whole.weight &le; 0.063<br/>gini = 0.56<br/>samples = 15<br/>value = [0, 0, 0, 0, 0, 0, 0, 0, 0, 0, 0, 0, 0, 0<br/>0, 0, 0, 0, 0, 0, 0, 1, 1, 9, 4, 0, 0, 0]<br/>class = 29>, fillcolor="#e539ac74"] ;
20 -> 34 ;
35 [label=<Whole.weight &le; 0.056<br/>gini = 0.593<br/>samples = 9<br/>value = [0, 0, 0, 0, 0, 0, 0, 0, 0, 0, 0, 0, 0, 0<br/>0, 0, 0, 0, 0, 0, 0, 0, 1, 4, 4, 0, 0, 0]<br/>class = 29>, fillcolor="#e539ac00"] ;
34 -> 35 ;
36 [label=<Shell.weight &le; 0.011<br/>gini = 0.5<br/>samples = 6<br/>value = [0, 0, 0, 0, 0, 0, 0, 0, 0, 0, 0, 0, 0, 0<br/>0, 0, 0, 0, 0, 0, 0, 0, 1, 4, 1, 0, 0, 0]<br/>class = 29>, fillcolor="#e539ac99"] ;
35 -> 36 ;
37 [label=<gini = 0.0<br/>samples = 1<br/>value = [0, 0, 0, 0, 0, 0, 0, 0, 0, 0, 0, 0, 0, 0<br/>0, 0, 0, 0, 0, 0, 0, 0, 0, 0, 1, 0, 0, 0]<br/>class = 2>, fillcolor="#e53986ff"] ;
36 -> 37 ;
38 [label=<Height &le; 0.047<br/>gini = 0.32<br/>samples = 5<br/>value = [0, 0, 0, 0, 0, 0, 0, 0, 0, 0, 0, 0, 0, 0<br/>0, 0, 0, 0, 0, 0, 0, 0, 1, 4, 0, 0, 0, 0]<br/>class = 29>, fillcolor="#e539acbf"] ;
36 -> 38 ;
39 [label=<gini = 0.5<br/>samples = 2<br/>value = [0, 0, 0, 0, 0, 0, 0, 0, 0, 0, 0, 0, 0, 0<br/>0, 0, 0, 0, 0, 0, 0, 0, 1, 1, 0, 0, 0, 0]<br/>class = 23>, fillcolor="#e539d100"] ;
38 -> 39 ;
40 [label=<gini = 0.0<br/>samples = 3<br/>value = [0, 0, 0, 0, 0, 0, 0, 0, 0, 0, 0, 0, 0, 0<br/>0, 0, 0, 0, 0, 0, 0, 0, 0, 3, 0, 0, 0, 0]<br/>class = 29>, fillcolor="#e539acff"] ;
38 -> 40 ;
41 [label=<gini = 0.0<br/>samples = 3<br/>value = [0, 0, 0, 0, 0, 0, 0, 0, 0, 0, 0, 0, 0, 0<br/>0, 0, 0, 0, 0, 0, 0, 0, 0, 0, 3, 0, 0, 0]<br/>class = 2>, fillcolor="#e53986ff"] ;
35 -> 41 ;
42 [label=<Shell.weight &le; 0.019<br/>gini = 0.278<br/>samples = 6<br/>value = [0, 0, 0, 0, 0, 0, 0, 0, 0, 0, 0, 0, 0, 0<br/>0, 0, 0, 0, 0, 0, 0, 1, 0, 5, 0, 0, 0, 0]<br/>class = 29>, fillcolor="#e539accc"] ;
34 -> 42 ;
43 [label=<gini = 0.0<br/>samples = 1<br/>value = [0, 0, 0, 0, 0, 0, 0, 0, 0, 0, 0, 0, 0, 0<br/>0, 0, 0, 0, 0, 0, 0, 1, 0, 0, 0, 0, 0, 0]<br/>class = 26>, fillcolor="#d739e5ff"] ;
42 -> 43 ;
44 [label=<gini = 0.0<br/>samples = 5<br/>value = [0, 0, 0, 0, 0, 0, 0, 0, 0, 0, 0, 0, 0, 0<br/>0, 0, 0, 0, 0, 0, 0, 0, 0, 5, 0, 0, 0, 0]<br/>class = 29>, fillcolor="#e539acff"] ;
42 -> 44 ;
45 [label=<Shucked.weight &le; 0.037<br/>gini = 0.198<br/>samples = 9<br/>value = [0, 0, 0, 0, 0, 0, 0, 0, 0, 0, 0, 0, 0, 0<br/>0, 0, 0, 0, 0, 0, 0, 0, 8, 1, 0, 0, 0, 0]<br/>class = 23>, fillcolor="#e539d1df"] ;
19 -> 45 ;
46 [label=<gini = 0.0<br/>samples = 8<br/>value = [0, 0, 0, 0, 0, 0, 0, 0, 0, 0, 0, 0, 0, 0<br/>0, 0, 0, 0, 0, 0, 0, 0, 8, 0, 0, 0, 0, 0]<br/>class = 23>, fillcolor="#e539d1ff"] ;
45 -> 46 ;
47 [label=<gini = 0.0<br/>samples = 1<br/>value = [0, 0, 0, 0, 0, 0, 0, 0, 0, 0, 0, 0, 0, 0<br/>0, 0, 0, 0, 0, 0, 0, 0, 0, 1, 0, 0, 0, 0]<br/>class = 29>, fillcolor="#e539acff"] ;
45 -> 47 ;
48 [label=<Length &le; 0.248<br/>gini = 0.698<br/>samples = 123<br/>value = [0, 0, 0, 0, 0, 0, 0, 0, 0, 0, 0, 0, 0, 0<br/>0, 0, 0, 0, 0, 0, 0, 0, 10, 51, 40, 15, 6, 1]<br/>class = 29>, fillcolor="#e539ac22"] ;
2 -> 48 ;
49 [label=<Height &le; 0.062<br/>gini = 0.611<br/>samples = 6<br/>value = [0, 0, 0, 0, 0, 0, 0, 0, 0, 0, 0, 0, 0, 0<br/>0, 0, 0, 0, 0, 0, 0, 0, 3, 1, 2, 0, 0, 0]<br/>class = 23>, fillcolor="#e539d140"] ;
48 -> 49 ;
50 [label=<gini = 0.0<br/>samples = 3<br/>value = [0, 0, 0, 0, 0, 0, 0, 0, 0, 0, 0, 0, 0, 0<br/>0, 0, 0, 0, 0, 0, 0, 0, 3, 0, 0, 0, 0, 0]<br/>class = 23>, fillcolor="#e539d1ff"] ;
49 -> 50 ;
51 [label=<Shucked.weight &le; 0.047<br/>gini = 0.444<br/>samples = 3<br/>value = [0, 0, 0, 0, 0, 0, 0, 0, 0, 0, 0, 0, 0, 0<br/>0, 0, 0, 0, 0, 0, 0, 0, 0, 1, 2, 0, 0, 0]<br/>class = 2>, fillcolor="#e539867f"] ;
49 -> 51 ;
52 [label=<gini = 0.0<br/>samples = 2<br/>value = [0, 0, 0, 0, 0, 0, 0, 0, 0, 0, 0, 0, 0, 0<br/>0, 0, 0, 0, 0, 0, 0, 0, 0, 0, 2, 0, 0, 0]<br/>class = 2>, fillcolor="#e53986ff"] ;
51 -> 52 ;
53 [label=<gini = 0.0<br/>samples = 1<br/>value = [0, 0, 0, 0, 0, 0, 0, 0, 0, 0, 0, 0, 0, 0<br/>0, 0, 0, 0, 0, 0, 0, 0, 0, 1, 0, 0, 0, 0]<br/>class = 29>, fillcolor="#e539acff"] ;
51 -> 53 ;
54 [label=<Whole.weight &le; 0.073<br/>gini = 0.689<br/>samples = 117<br/>value = [0, 0, 0, 0, 0, 0, 0, 0, 0, 0, 0, 0, 0, 0<br/>0, 0, 0, 0, 0, 0, 0, 0, 7, 50, 38, 15, 6, 1]<br/>class = 29>, fillcolor="#e539ac27"] ;
48 -> 54 ;
55 [label=<gini = 0.0<br/>samples = 5<br/>value = [0, 0, 0, 0, 0, 0, 0, 0, 0, 0, 0, 0, 0, 0<br/>0, 0, 0, 0, 0, 0, 0, 0, 0, 5, 0, 0, 0, 0]<br/>class = 29>, fillcolor="#e539acff"] ;
54 -> 55 ;
56 [label=<Shucked.weight &le; 0.03<br/>gini = 0.699<br/>samples = 112<br/>value = [0, 0, 0, 0, 0, 0, 0, 0, 0, 0, 0, 0, 0, 0<br/>0, 0, 0, 0, 0, 0, 0, 0, 7, 45, 38, 15, 6, 1]<br/>class = 29>, fillcolor="#e539ac18"] ;
54 -> 56 ;
57 [label=<Shell.weight &le; 0.03<br/>gini = 0.278<br/>samples = 6<br/>value = [0, 0, 0, 0, 0, 0, 0, 0, 0, 0, 0, 0, 0, 0<br/>0, 0, 0, 0, 0, 0, 0, 0, 0, 1, 5, 0, 0, 0]<br/>class = 2>, fillcolor="#e53986cc"] ;
56 -> 57 ;
58 [label=<gini = 0.0<br/>samples = 5<br/>value = [0, 0, 0, 0, 0, 0, 0, 0, 0, 0, 0, 0, 0, 0<br/>0, 0, 0, 0, 0, 0, 0, 0, 0, 0, 5, 0, 0, 0]<br/>class = 2>, fillcolor="#e53986ff"] ;
57 -> 58 ;
59 [label=<gini = 0.0<br/>samples = 1<br/>value = [0, 0, 0, 0, 0, 0, 0, 0, 0, 0, 0, 0, 0, 0<br/>0, 0, 0, 0, 0, 0, 0, 0, 0, 1, 0, 0, 0, 0]<br/>class = 29>, fillcolor="#e539acff"] ;
57 -> 59 ;
60 [label=<Viscera.weight &le; 0.026<br/>gini = 0.703<br/>samples = 106<br/>value = [0, 0, 0, 0, 0, 0, 0, 0, 0, 0, 0, 0, 0, 0<br/>0, 0, 0, 0, 0, 0, 0, 0, 7, 44, 33, 15, 6, 1]<br/>class = 29>, fillcolor="#e539ac26"] ;
56 -> 60 ;
61 [label=<Shell.weight &le; 0.031<br/>gini = 0.669<br/>samples = 64<br/>value = [0, 0, 0, 0, 0, 0, 0, 0, 0, 0, 0, 0, 0, 0<br/>0, 0, 0, 0, 0, 0, 0, 0, 4, 32, 15, 8, 5, 0]<br/>class = 29>, fillcolor="#e539ac58"] ;
60 -> 61 ;
62 [label=<Whole.weight &le; 0.092<br/>gini = 0.689<br/>samples = 40<br/>value = [0, 0, 0, 0, 0, 0, 0, 0, 0, 0, 0, 0, 0, 0<br/>0, 0, 0, 0, 0, 0, 0, 0, 3, 16, 14, 6, 1, 0]<br/>class = 29>, fillcolor="#e539ac14"] ;
61 -> 62 ;
63 [label=<Diameter &le; 0.192<br/>gini = 0.631<br/>samples = 15<br/>value = [0, 0, 0, 0, 0, 0, 0, 0, 0, 0, 0, 0, 0, 0<br/>0, 0, 0, 0, 0, 0, 0, 0, 1, 8, 1, 4, 1, 0]<br/>class = 29>, fillcolor="#e539ac5d"] ;
62 -> 63 ;
64 [label=<gini = 0.278<br/>samples = 6<br/>value = [0, 0, 0, 0, 0, 0, 0, 0, 0, 0, 0, 0, 0, 0<br/>0, 0, 0, 0, 0, 0, 0, 0, 0, 5, 1, 0, 0, 0]<br/>class = 29>, fillcolor="#e539accc"] ;
63 -> 64 ;
65 [label=<gini = 0.667<br/>samples = 9<br/>value = [0, 0, 0, 0, 0, 0, 0, 0, 0, 0, 0, 0, 0, 0<br/>0, 0, 0, 0, 0, 0, 0, 0, 1, 3, 0, 4, 1, 0]<br/>class = 27>, fillcolor="#e539612a"] ;
63 -> 65 ;
66 [label=<Diameter &le; 0.218<br/>gini = 0.614<br/>samples = 25<br/>value = [0, 0, 0, 0, 0, 0, 0, 0, 0, 0, 0, 0, 0, 0<br/>0, 0, 0, 0, 0, 0, 0, 0, 2, 8, 13, 2, 0, 0]<br/>class = 2>, fillcolor="#e539864b"] ;
62 -> 66 ;
67 [label=<gini = 0.597<br/>samples = 23<br/>value = [0, 0, 0, 0, 0, 0, 0, 0, 0, 0, 0, 0, 0, 0<br/>0, 0, 0, 0, 0, 0, 0, 0, 2, 6, 13, 2, 0, 0]<br/>class = 2>, fillcolor="#e5398669"] ;
66 -> 67 ;
68 [label=<gini = 0.0<br/>samples = 2<br/>value = [0, 0, 0, 0, 0, 0, 0, 0, 0, 0, 0, 0, 0, 0<br/>0, 0, 0, 0, 0, 0, 0, 0, 0, 2, 0, 0, 0, 0]<br/>class = 29>, fillcolor="#e539acff"] ;
66 -> 68 ;
69 [label=<Diameter &le; 0.203<br/>gini = 0.517<br/>samples = 24<br/>value = [0, 0, 0, 0, 0, 0, 0, 0, 0, 0, 0, 0, 0, 0<br/>0, 0, 0, 0, 0, 0, 0, 0, 1, 16, 1, 2, 4, 0]<br/>class = 29>, fillcolor="#e539ac99"] ;
61 -> 69 ;
70 [label=<Shell.weight &le; 0.035<br/>gini = 0.667<br/>samples = 6<br/>value = [0, 0, 0, 0, 0, 0, 0, 0, 0, 0, 0, 0, 0, 0<br/>0, 0, 0, 0, 0, 0, 0, 0, 0, 2, 0, 2, 2, 0]<br/>class = 29>, fillcolor="#e539ac00"] ;
69 -> 70 ;
71 [label=<gini = 0.0<br/>samples = 2<br/>value = [0, 0, 0, 0, 0, 0, 0, 0, 0, 0, 0, 0, 0, 0<br/>0, 0, 0, 0, 0, 0, 0, 0, 0, 0, 0, 0, 2, 0]<br/>class = 25>, fillcolor="#e5393cff"] ;
70 -> 71 ;
72 [label=<gini = 0.5<br/>samples = 4<br/>value = [0, 0, 0, 0, 0, 0, 0, 0, 0, 0, 0, 0, 0, 0<br/>0, 0, 0, 0, 0, 0, 0, 0, 0, 2, 0, 2, 0, 0]<br/>class = 29>, fillcolor="#e539ac00"] ;
70 -> 72 ;
73 [label=<Height &le; 0.053<br/>gini = 0.377<br/>samples = 18<br/>value = [0, 0, 0, 0, 0, 0, 0, 0, 0, 0, 0, 0, 0, 0<br/>0, 0, 0, 0, 0, 0, 0, 0, 1, 14, 1, 0, 2, 0]<br/>class = 29>, fillcolor="#e539acbf"] ;
69 -> 73 ;
74 [label=<gini = 0.0<br/>samples = 1<br/>value = [0, 0, 0, 0, 0, 0, 0, 0, 0, 0, 0, 0, 0, 0<br/>0, 0, 0, 0, 0, 0, 0, 0, 1, 0, 0, 0, 0, 0]<br/>class = 23>, fillcolor="#e539d1ff"] ;
73 -> 74 ;
75 [label=<gini = 0.304<br/>samples = 17<br/>value = [0, 0, 0, 0, 0, 0, 0, 0, 0, 0, 0, 0, 0, 0<br/>0, 0, 0, 0, 0, 0, 0, 0, 0, 14, 1, 0, 2, 0]<br/>class = 29>, fillcolor="#e539accc"] ;
73 -> 75 ;
76 [label=<Shucked.weight &le; 0.04<br/>gini = 0.701<br/>samples = 42<br/>value = [0, 0, 0, 0, 0, 0, 0, 0, 0, 0, 0, 0, 0, 0<br/>0, 0, 0, 0, 0, 0, 0, 0, 3, 12, 18, 7, 1, 1]<br/>class = 2>, fillcolor="#e5398633"] ;
60 -> 76 ;
77 [label=<Diameter &le; 0.207<br/>gini = 0.625<br/>samples = 4<br/>value = [0, 0, 0, 0, 0, 0, 0, 0, 0, 0, 0, 0, 0, 0<br/>0, 0, 0, 0, 0, 0, 0, 0, 1, 2, 0, 0, 1, 0]<br/>class = 29>, fillcolor="#e539ac55"] ;
76 -> 77 ;
78 [label=<gini = 0.0<br/>samples = 2<br/>value = [0, 0, 0, 0, 0, 0, 0, 0, 0, 0, 0, 0, 0, 0<br/>0, 0, 0, 0, 0, 0, 0, 0, 0, 2, 0, 0, 0, 0]<br/>class = 29>, fillcolor="#e539acff"] ;
77 -> 78 ;
79 [label=<Shell.weight &le; 0.035<br/>gini = 0.5<br/>samples = 2<br/>value = [0, 0, 0, 0, 0, 0, 0, 0, 0, 0, 0, 0, 0, 0<br/>0, 0, 0, 0, 0, 0, 0, 0, 1, 0, 0, 0, 1, 0]<br/>class = 23>, fillcolor="#e539d100"] ;
77 -> 79 ;
80 [label=<gini = 0.0<br/>samples = 1<br/>value = [0, 0, 0, 0, 0, 0, 0, 0, 0, 0, 0, 0, 0, 0<br/>0, 0, 0, 0, 0, 0, 0, 0, 1, 0, 0, 0, 0, 0]<br/>class = 23>, fillcolor="#e539d1ff"] ;
79 -> 80 ;
81 [label=<gini = 0.0<br/>samples = 1<br/>value = [0, 0, 0, 0, 0, 0, 0, 0, 0, 0, 0, 0, 0, 0<br/>0, 0, 0, 0, 0, 0, 0, 0, 0, 0, 0, 0, 1, 0]<br/>class = 25>, fillcolor="#e5393cff"] ;
79 -> 81 ;
82 [label=<Shucked.weight &le; 0.058<br/>gini = 0.669<br/>samples = 38<br/>value = [0, 0, 0, 0, 0, 0, 0, 0, 0, 0, 0, 0, 0, 0<br/>0, 0, 0, 0, 0, 0, 0, 0, 2, 10, 18, 7, 0, 1]<br/>class = 2>, fillcolor="#e5398649"] ;
76 -> 82 ;
83 [label=<Viscera.weight &le; 0.036<br/>gini = 0.639<br/>samples = 27<br/>value = [0, 0, 0, 0, 0, 0, 0, 0, 0, 0, 0, 0, 0, 0<br/>0, 0, 0, 0, 0, 0, 0, 0, 1, 4, 14, 7, 0, 1]<br/>class = 2>, fillcolor="#e5398659"] ;
82 -> 83 ;
84 [label=<gini = 0.592<br/>samples = 25<br/>value = [0, 0, 0, 0, 0, 0, 0, 0, 0, 0, 0, 0, 0, 0<br/>0, 0, 0, 0, 0, 0, 0, 0, 1, 3, 14, 7, 0, 0]<br/>class = 2>, fillcolor="#e5398663"] ;
83 -> 84 ;
85 [label=<gini = 0.5<br/>samples = 2<br/>value = [0, 0, 0, 0, 0, 0, 0, 0, 0, 0, 0, 0, 0, 0<br/>0, 0, 0, 0, 0, 0, 0, 0, 0, 1, 0, 0, 0, 1]<br/>class = 29>, fillcolor="#e539ac00"] ;
83 -> 85 ;
86 [label=<Viscera.weight &le; 0.035<br/>gini = 0.562<br/>samples = 11<br/>value = [0, 0, 0, 0, 0, 0, 0, 0, 0, 0, 0, 0, 0, 0<br/>0, 0, 0, 0, 0, 0, 0, 0, 1, 6, 4, 0, 0, 0]<br/>class = 29>, fillcolor="#e539ac49"] ;
82 -> 86 ;
87 [label=<gini = 0.32<br/>samples = 5<br/>value = [0, 0, 0, 0, 0, 0, 0, 0, 0, 0, 0, 0, 0, 0<br/>0, 0, 0, 0, 0, 0, 0, 0, 1, 4, 0, 0, 0, 0]<br/>class = 29>, fillcolor="#e539acbf"] ;
86 -> 87 ;
88 [label=<gini = 0.444<br/>samples = 6<br/>value = [0, 0, 0, 0, 0, 0, 0, 0, 0, 0, 0, 0, 0, 0<br/>0, 0, 0, 0, 0, 0, 0, 0, 0, 2, 4, 0, 0, 0]<br/>class = 2>, fillcolor="#e539867f"] ;
86 -> 88 ;
89 [label=<Shell.weight &le; 0.095<br/>gini = 0.809<br/>samples = 966<br/>value = [0, 63, 32, 20, 12, 3, 3, 4, 0, 1, 0, 0, 0, 0<br/>0, 0, 0, 0, 0, 0, 0, 0, 4, 37, 194, 289, 196<br/>108]<br/>class = 27>, fillcolor="#e539611f"] ;
1 -> 89 ;
90 [label=<Sex &le; 1.5<br/>gini = 0.78<br/>samples = 489<br/>value = [0, 28, 10, 5, 3, 1, 0, 0, 0, 0, 0, 0, 0, 0<br/>0, 0, 0, 0, 0, 0, 0, 0, 4, 34, 147, 151, 67<br/>39]<br/>class = 27>, fillcolor="#e5396103"] ;
89 -> 90 ;
91 [label=<Sex &le; 0.5<br/>gini = 0.745<br/>samples = 406<br/>value = [0, 16, 3, 2, 2, 1, 0, 0, 0, 0, 0, 0, 0, 0<br/>0, 0, 0, 0, 0, 0, 0, 0, 3, 34, 136, 137, 55<br/>17]<br/>class = 27>, fillcolor="#e5396101"] ;
90 -> 91 ;
92 [label=<Whole.weight &le; 0.194<br/>gini = 0.825<br/>samples = 33<br/>value = [0, 9, 0, 1, 1, 0, 0, 0, 0, 0, 0, 0, 0, 0<br/>0, 0, 0, 0, 0, 0, 0, 0, 0, 3, 3, 7, 5, 4]<br/>class = 7>, fillcolor="#e5a33914"] ;
91 -> 92 ;
93 [label=<Whole.weight &le; 0.144<br/>gini = 0.444<br/>samples = 6<br/>value = [0, 0, 0, 0, 0, 0, 0, 0, 0, 0, 0, 0, 0, 0<br/>0, 0, 0, 0, 0, 0, 0, 0, 0, 2, 0, 4, 0, 0]<br/>class = 27>, fillcolor="#e539617f"] ;
92 -> 93 ;
94 [label=<gini = 0.0<br/>samples = 1<br/>value = [0, 0, 0, 0, 0, 0, 0, 0, 0, 0, 0, 0, 0, 0<br/>0, 0, 0, 0, 0, 0, 0, 0, 0, 1, 0, 0, 0, 0]<br/>class = 29>, fillcolor="#e539acff"] ;
93 -> 94 ;
95 [label=<Length &le; 0.355<br/>gini = 0.32<br/>samples = 5<br/>value = [0, 0, 0, 0, 0, 0, 0, 0, 0, 0, 0, 0, 0, 0<br/>0, 0, 0, 0, 0, 0, 0, 0, 0, 1, 0, 4, 0, 0]<br/>class = 27>, fillcolor="#e53961bf"] ;
93 -> 95 ;
96 [label=<gini = 0.0<br/>samples = 4<br/>value = [0, 0, 0, 0, 0, 0, 0, 0, 0, 0, 0, 0, 0, 0<br/>0, 0, 0, 0, 0, 0, 0, 0, 0, 0, 0, 4, 0, 0]<br/>class = 27>, fillcolor="#e53961ff"] ;
95 -> 96 ;
97 [label=<gini = 0.0<br/>samples = 1<br/>value = [0, 0, 0, 0, 0, 0, 0, 0, 0, 0, 0, 0, 0, 0<br/>0, 0, 0, 0, 0, 0, 0, 0, 0, 1, 0, 0, 0, 0]<br/>class = 29>, fillcolor="#e539acff"] ;
95 -> 97 ;
98 [label=<Viscera.weight &le; 0.069<br/>gini = 0.804<br/>samples = 27<br/>value = [0, 9, 0, 1, 1, 0, 0, 0, 0, 0, 0, 0, 0, 0<br/>0, 0, 0, 0, 0, 0, 0, 0, 0, 1, 3, 3, 5, 4]<br/>class = 7>, fillcolor="#e5a3392e"] ;
92 -> 98 ;
99 [label=<Shell.weight &le; 0.057<br/>gini = 0.784<br/>samples = 25<br/>value = [0, 9, 0, 1, 1, 0, 0, 0, 0, 0, 0, 0, 0, 0<br/>0, 0, 0, 0, 0, 0, 0, 0, 0, 1, 3, 1, 5, 4]<br/>class = 7>, fillcolor="#e5a33933"] ;
98 -> 99 ;
100 [label=<gini = 0.0<br/>samples = 2<br/>value = [0, 0, 0, 0, 0, 0, 0, 0, 0, 0, 0, 0, 0, 0<br/>0, 0, 0, 0, 0, 0, 0, 0, 0, 0, 2, 0, 0, 0]<br/>class = 2>, fillcolor="#e53986ff"] ;
99 -> 100 ;
101 [label=<Shucked.weight &le; 0.073<br/>gini = 0.76<br/>samples = 23<br/>value = [0, 9, 0, 1, 1, 0, 0, 0, 0, 0, 0, 0, 0, 0<br/>0, 0, 0, 0, 0, 0, 0, 0, 0, 1, 1, 1, 5, 4]<br/>class = 7>, fillcolor="#e5a33939"] ;
99 -> 101 ;
102 [label=<gini = 0.0<br/>samples = 2<br/>value = [0, 0, 0, 0, 0, 0, 0, 0, 0, 0, 0, 0, 0, 0<br/>0, 0, 0, 0, 0, 0, 0, 0, 0, 0, 0, 0, 0, 2]<br/>class = 24>, fillcolor="#e55b39ff"] ;
101 -> 102 ;
103 [label=<Shucked.weight &le; 0.102<br/>gini = 0.739<br/>samples = 21<br/>value = [0, 9, 0, 1, 1, 0, 0, 0, 0, 0, 0, 0, 0, 0<br/>0, 0, 0, 0, 0, 0, 0, 0, 0, 1, 1, 1, 5, 2]<br/>class = 7>, fillcolor="#e5a33940"] ;
101 -> 103 ;
104 [label=<gini = 0.42<br/>samples = 10<br/>value = [0, 7, 0, 0, 0, 0, 0, 0, 0, 0, 0, 0, 0, 0<br/>0, 0, 0, 0, 0, 0, 0, 0, 0, 0, 0, 0, 3, 0]<br/>class = 7>, fillcolor="#e5a33992"] ;
103 -> 104 ;
105 [label=<gini = 0.86<br/>samples = 11<br/>value = [0, 2, 0, 1, 1, 0, 0, 0, 0, 0, 0, 0, 0, 0<br/>0, 0, 0, 0, 0, 0, 0, 0, 0, 1, 1, 1, 2, 2]<br/>class = 7>, fillcolor="#e5a33900"] ;
103 -> 105 ;
106 [label=<gini = 0.0<br/>samples = 2<br/>value = [0, 0, 0, 0, 0, 0, 0, 0, 0, 0, 0, 0, 0, 0<br/>0, 0, 0, 0, 0, 0, 0, 0, 0, 0, 0, 2, 0, 0]<br/>class = 27>, fillcolor="#e53961ff"] ;
98 -> 106 ;
107 [label=<Viscera.weight &le; 0.034<br/>gini = 0.725<br/>samples = 373<br/>value = [0, 7, 3, 1, 1, 1, 0, 0, 0, 0, 0, 0, 0, 0<br/>0, 0, 0, 0, 0, 0, 0, 0, 3, 31, 133, 130, 50<br/>13]<br/>class = 2>, fillcolor="#e5398603"] ;
91 -> 107 ;
108 [label=<Viscera.weight &le; 0.025<br/>gini = 0.72<br/>samples = 62<br/>value = [0, 1, 1, 0, 1, 0, 0, 0, 0, 0, 0, 0, 0, 0<br/>0, 0, 0, 0, 0, 0, 0, 0, 2, 9, 29, 9, 8, 2]<br/>class = 2>, fillcolor="#e5398660"] ;
107 -> 108 ;
109 [label=<Length &le; 0.305<br/>gini = 0.716<br/>samples = 9<br/>value = [0, 0, 1, 0, 0, 0, 0, 0, 0, 0, 0, 0, 0, 0<br/>0, 0, 0, 0, 0, 0, 0, 0, 0, 4, 1, 2, 1, 0]<br/>class = 29>, fillcolor="#e539ac49"] ;
108 -> 109 ;
110 [label=<Shucked.weight &le; 0.038<br/>gini = 0.625<br/>samples = 4<br/>value = [0, 0, 0, 0, 0, 0, 0, 0, 0, 0, 0, 0, 0, 0<br/>0, 0, 0, 0, 0, 0, 0, 0, 0, 0, 1, 2, 1, 0]<br/>class = 27>, fillcolor="#e5396155"] ;
109 -> 110 ;
111 [label=<gini = 0.0<br/>samples = 1<br/>value = [0, 0, 0, 0, 0, 0, 0, 0, 0, 0, 0, 0, 0, 0<br/>0, 0, 0, 0, 0, 0, 0, 0, 0, 0, 0, 0, 1, 0]<br/>class = 25>, fillcolor="#e5393cff"] ;
110 -> 111 ;
112 [label=<Length &le; 0.298<br/>gini = 0.444<br/>samples = 3<br/>value = [0, 0, 0, 0, 0, 0, 0, 0, 0, 0, 0, 0, 0, 0<br/>0, 0, 0, 0, 0, 0, 0, 0, 0, 0, 1, 2, 0, 0]<br/>class = 27>, fillcolor="#e539617f"] ;
110 -> 112 ;
113 [label=<gini = 0.0<br/>samples = 2<br/>value = [0, 0, 0, 0, 0, 0, 0, 0, 0, 0, 0, 0, 0, 0<br/>0, 0, 0, 0, 0, 0, 0, 0, 0, 0, 0, 2, 0, 0]<br/>class = 27>, fillcolor="#e53961ff"] ;
112 -> 113 ;
114 [label=<gini = 0.0<br/>samples = 1<br/>value = [0, 0, 0, 0, 0, 0, 0, 0, 0, 0, 0, 0, 0, 0<br/>0, 0, 0, 0, 0, 0, 0, 0, 0, 0, 1, 0, 0, 0]<br/>class = 2>, fillcolor="#e53986ff"] ;
112 -> 114 ;
115 [label=<Whole.weight &le; 0.182<br/>gini = 0.32<br/>samples = 5<br/>value = [0, 0, 1, 0, 0, 0, 0, 0, 0, 0, 0, 0, 0, 0<br/>0, 0, 0, 0, 0, 0, 0, 0, 0, 4, 0, 0, 0, 0]<br/>class = 29>, fillcolor="#e539acbf"] ;
109 -> 115 ;
116 [label=<gini = 0.0<br/>samples = 4<br/>value = [0, 0, 0, 0, 0, 0, 0, 0, 0, 0, 0, 0, 0, 0<br/>0, 0, 0, 0, 0, 0, 0, 0, 0, 4, 0, 0, 0, 0]<br/>class = 29>, fillcolor="#e539acff"] ;
115 -> 116 ;
117 [label=<gini = 0.0<br/>samples = 1<br/>value = [0, 0, 1, 0, 0, 0, 0, 0, 0, 0, 0, 0, 0, 0<br/>0, 0, 0, 0, 0, 0, 0, 0, 0, 0, 0, 0, 0, 0]<br/>class = 9>, fillcolor="#e5c839ff"] ;
115 -> 117 ;
118 [label=<Shucked.weight &le; 0.057<br/>gini = 0.674<br/>samples = 53<br/>value = [0, 1, 0, 0, 1, 0, 0, 0, 0, 0, 0, 0, 0, 0<br/>0, 0, 0, 0, 0, 0, 0, 0, 2, 5, 28, 7, 7, 2]<br/>class = 2>, fillcolor="#e5398674"] ;
108 -> 118 ;
119 [label=<Whole.weight &le; 0.127<br/>gini = 0.8<br/>samples = 15<br/>value = [0, 0, 0, 0, 0, 0, 0, 0, 0, 0, 0, 0, 0, 0<br/>0, 0, 0, 0, 0, 0, 0, 0, 2, 2, 4, 1, 4, 2]<br/>class = 2>, fillcolor="#e5398600"] ;
118 -> 119 ;
120 [label=<Diameter &le; 0.227<br/>gini = 0.375<br/>samples = 4<br/>value = [0, 0, 0, 0, 0, 0, 0, 0, 0, 0, 0, 0, 0, 0<br/>0, 0, 0, 0, 0, 0, 0, 0, 0, 0, 3, 0, 0, 1]<br/>class = 2>, fillcolor="#e53986aa"] ;
119 -> 120 ;
121 [label=<gini = 0.0<br/>samples = 1<br/>value = [0, 0, 0, 0, 0, 0, 0, 0, 0, 0, 0, 0, 0, 0<br/>0, 0, 0, 0, 0, 0, 0, 0, 0, 0, 0, 0, 0, 1]<br/>class = 24>, fillcolor="#e55b39ff"] ;
120 -> 121 ;
122 [label=<gini = 0.0<br/>samples = 3<br/>value = [0, 0, 0, 0, 0, 0, 0, 0, 0, 0, 0, 0, 0, 0<br/>0, 0, 0, 0, 0, 0, 0, 0, 0, 0, 3, 0, 0, 0]<br/>class = 2>, fillcolor="#e53986ff"] ;
120 -> 122 ;
123 [label=<Shell.weight &le; 0.04<br/>gini = 0.777<br/>samples = 11<br/>value = [0, 0, 0, 0, 0, 0, 0, 0, 0, 0, 0, 0, 0, 0<br/>0, 0, 0, 0, 0, 0, 0, 0, 2, 2, 1, 1, 4, 1]<br/>class = 25>, fillcolor="#e5393c39"] ;
119 -> 123 ;
124 [label=<gini = 0.0<br/>samples = 3<br/>value = [0, 0, 0, 0, 0, 0, 0, 0, 0, 0, 0, 0, 0, 0<br/>0, 0, 0, 0, 0, 0, 0, 0, 0, 0, 0, 0, 3, 0]<br/>class = 25>, fillcolor="#e5393cff"] ;
123 -> 124 ;
125 [label=<gini = 0.812<br/>samples = 8<br/>value = [0, 0, 0, 0, 0, 0, 0, 0, 0, 0, 0, 0, 0, 0<br/>0, 0, 0, 0, 0, 0, 0, 0, 2, 2, 1, 1, 1, 1]<br/>class = 23>, fillcolor="#e539d100"] ;
123 -> 125 ;
126 [label=<Length &le; 0.373<br/>gini = 0.562<br/>samples = 38<br/>value = [0, 1, 0, 0, 1, 0, 0, 0, 0, 0, 0, 0, 0, 0<br/>0, 0, 0, 0, 0, 0, 0, 0, 0, 3, 24, 6, 3, 0]<br/>class = 2>, fillcolor="#e539868f"] ;
118 -> 126 ;
127 [label=<Length &le; 0.322<br/>gini = 0.498<br/>samples = 35<br/>value = [0, 0, 0, 0, 1, 0, 0, 0, 0, 0, 0, 0, 0, 0<br/>0, 0, 0, 0, 0, 0, 0, 0, 0, 3, 24, 5, 2, 0]<br/>class = 2>, fillcolor="#e53986a2"] ;
126 -> 127 ;
128 [label=<gini = 0.653<br/>samples = 14<br/>value = [0, 0, 0, 0, 1, 0, 0, 0, 0, 0, 0, 0, 0, 0<br/>0, 0, 0, 0, 0, 0, 0, 0, 0, 1, 7, 4, 1, 0]<br/>class = 2>, fillcolor="#e539864c"] ;
127 -> 128 ;
129 [label=<gini = 0.331<br/>samples = 21<br/>value = [0, 0, 0, 0, 0, 0, 0, 0, 0, 0, 0, 0, 0, 0<br/>0, 0, 0, 0, 0, 0, 0, 0, 0, 2, 17, 1, 1, 0]<br/>class = 2>, fillcolor="#e53986c9"] ;
127 -> 129 ;
130 [label=<Diameter &le; 0.287<br/>gini = 0.667<br/>samples = 3<br/>value = [0, 1, 0, 0, 0, 0, 0, 0, 0, 0, 0, 0, 0, 0<br/>0, 0, 0, 0, 0, 0, 0, 0, 0, 0, 0, 1, 1, 0]<br/>class = 7>, fillcolor="#e5a33900"] ;
126 -> 130 ;
131 [label=<gini = 0.0<br/>samples = 1<br/>value = [0, 0, 0, 0, 0, 0, 0, 0, 0, 0, 0, 0, 0, 0<br/>0, 0, 0, 0, 0, 0, 0, 0, 0, 0, 0, 0, 1, 0]<br/>class = 25>, fillcolor="#e5393cff"] ;
130 -> 131 ;
132 [label=<gini = 0.5<br/>samples = 2<br/>value = [0, 1, 0, 0, 0, 0, 0, 0, 0, 0, 0, 0, 0, 0<br/>0, 0, 0, 0, 0, 0, 0, 0, 0, 0, 0, 1, 0, 0]<br/>class = 7>, fillcolor="#e5a33900"] ;
130 -> 132 ;
133 [label=<Whole.weight &le; 0.353<br/>gini = 0.712<br/>samples = 311<br/>value = [0, 6, 2, 1, 0, 1, 0, 0, 0, 0, 0, 0, 0, 0<br/>0, 0, 0, 0, 0, 0, 0, 0, 1, 22, 104, 121, 42<br/>11]<br/>class = 27>, fillcolor="#e5396115"] ;
107 -> 133 ;
134 [label=<Diameter &le; 0.278<br/>gini = 0.715<br/>samples = 301<br/>value = [0, 6, 2, 1, 0, 1, 0, 0, 0, 0, 0, 0, 0, 0<br/>0, 0, 0, 0, 0, 0, 0, 0, 1, 22, 96, 119, 42<br/>11]<br/>class = 27>, fillcolor="#e539611d"] ;
133 -> 134 ;
135 [label=<Whole.weight &le; 0.17<br/>gini = 0.701<br/>samples = 143<br/>value = [0, 4, 0, 0, 0, 0, 0, 0, 0, 0, 0, 0, 0, 0<br/>0, 0, 0, 0, 0, 0, 0, 0, 1, 14, 50, 57, 9, 8]<br/>class = 27>, fillcolor="#e5396113"] ;
134 -> 135 ;
136 [label=<Whole.weight &le; 0.14<br/>gini = 0.698<br/>samples = 22<br/>value = [0, 0, 0, 0, 0, 0, 0, 0, 0, 0, 0, 0, 0, 0<br/>0, 0, 0, 0, 0, 0, 0, 0, 0, 5, 10, 4, 2, 1]<br/>class = 2>, fillcolor="#e539864b"] ;
135 -> 136 ;
137 [label=<gini = 0.375<br/>samples = 4<br/>value = [0, 0, 0, 0, 0, 0, 0, 0, 0, 0, 0, 0, 0, 0<br/>0, 0, 0, 0, 0, 0, 0, 0, 0, 0, 1, 3, 0, 0]<br/>class = 27>, fillcolor="#e53961aa"] ;
136 -> 137 ;
138 [label=<gini = 0.654<br/>samples = 18<br/>value = [0, 0, 0, 0, 0, 0, 0, 0, 0, 0, 0, 0, 0, 0<br/>0, 0, 0, 0, 0, 0, 0, 0, 0, 5, 9, 1, 2, 1]<br/>class = 2>, fillcolor="#e539864e"] ;
136 -> 138 ;
139 [label=<Whole.weight &le; 0.177<br/>gini = 0.685<br/>samples = 121<br/>value = [0, 4, 0, 0, 0, 0, 0, 0, 0, 0, 0, 0, 0, 0<br/>0, 0, 0, 0, 0, 0, 0, 0, 1, 9, 40, 53, 7, 7]<br/>class = 27>, fillcolor="#e5396129"] ;
135 -> 139 ;
140 [label=<gini = 0.292<br/>samples = 12<br/>value = [0, 1, 0, 0, 0, 0, 0, 0, 0, 0, 0, 0, 0, 0<br/>0, 0, 0, 0, 0, 0, 0, 0, 0, 0, 0, 10, 0, 1]<br/>class = 27>, fillcolor="#e53961d1"] ;
139 -> 140 ;
141 [label=<gini = 0.695<br/>samples = 109<br/>value = [0, 3, 0, 0, 0, 0, 0, 0, 0, 0, 0, 0, 0, 0<br/>0, 0, 0, 0, 0, 0, 0, 0, 1, 9, 40, 43, 7, 6]<br/>class = 27>, fillcolor="#e539610b"] ;
139 -> 141 ;
142 [label=<Viscera.weight &le; 0.074<br/>gini = 0.714<br/>samples = 158<br/>value = [0, 2, 2, 1, 0, 1, 0, 0, 0, 0, 0, 0, 0, 0<br/>0, 0, 0, 0, 0, 0, 0, 0, 0, 8, 46, 62, 33, 3]<br/>class = 27>, fillcolor="#e5396124"] ;
134 -> 142 ;
143 [label=<Length &le; 0.398<br/>gini = 0.725<br/>samples = 146<br/>value = [0, 2, 2, 1, 0, 1, 0, 0, 0, 0, 0, 0, 0, 0<br/>0, 0, 0, 0, 0, 0, 0, 0, 0, 8, 44, 53, 32, 3]<br/>class = 27>, fillcolor="#e5396117"] ;
142 -> 143 ;
144 [label=<gini = 0.729<br/>samples = 100<br/>value = [0, 1, 2, 1, 0, 1, 0, 0, 0, 0, 0, 0, 0, 0<br/>0, 0, 0, 0, 0, 0, 0, 0, 0, 6, 23, 40, 23, 3]<br/>class = 27>, fillcolor="#e5396138"] ;
143 -> 144 ;
145 [label=<gini = 0.671<br/>samples = 46<br/>value = [0, 1, 0, 0, 0, 0, 0, 0, 0, 0, 0, 0, 0, 0<br/>0, 0, 0, 0, 0, 0, 0, 0, 0, 2, 21, 13, 9, 0]<br/>class = 2>, fillcolor="#e539863e"] ;
143 -> 145 ;
146 [label=<Height &le; 0.105<br/>gini = 0.403<br/>samples = 12<br/>value = [0, 0, 0, 0, 0, 0, 0, 0, 0, 0, 0, 0, 0, 0<br/>0, 0, 0, 0, 0, 0, 0, 0, 0, 0, 2, 9, 1, 0]<br/>class = 27>, fillcolor="#e53961b2"] ;
142 -> 146 ;
147 [label=<gini = 0.32<br/>samples = 10<br/>value = [0, 0, 0, 0, 0, 0, 0, 0, 0, 0, 0, 0, 0, 0<br/>0, 0, 0, 0, 0, 0, 0, 0, 0, 0, 2, 8, 0, 0]<br/>class = 27>, fillcolor="#e53961bf"] ;
146 -> 147 ;
148 [label=<gini = 0.5<br/>samples = 2<br/>value = [0, 0, 0, 0, 0, 0, 0, 0, 0, 0, 0, 0, 0, 0<br/>0, 0, 0, 0, 0, 0, 0, 0, 0, 0, 0, 1, 1, 0]<br/>class = 27>, fillcolor="#e5396100"] ;
146 -> 148 ;
149 [label=<Length &le; 0.438<br/>gini = 0.32<br/>samples = 10<br/>value = [0, 0, 0, 0, 0, 0, 0, 0, 0, 0, 0, 0, 0, 0<br/>0, 0, 0, 0, 0, 0, 0, 0, 0, 0, 8, 2, 0, 0]<br/>class = 2>, fillcolor="#e53986bf"] ;
133 -> 149 ;
150 [label=<gini = 0.0<br/>samples = 8<br/>value = [0, 0, 0, 0, 0, 0, 0, 0, 0, 0, 0, 0, 0, 0<br/>0, 0, 0, 0, 0, 0, 0, 0, 0, 0, 8, 0, 0, 0]<br/>class = 2>, fillcolor="#e53986ff"] ;
149 -> 150 ;
151 [label=<gini = 0.0<br/>samples = 2<br/>value = [0, 0, 0, 0, 0, 0, 0, 0, 0, 0, 0, 0, 0, 0<br/>0, 0, 0, 0, 0, 0, 0, 0, 0, 0, 0, 2, 0, 0]<br/>class = 27>, fillcolor="#e53961ff"] ;
149 -> 151 ;
152 [label=<Diameter &le; 0.282<br/>gini = 0.833<br/>samples = 83<br/>value = [0, 12, 7, 3, 1, 0, 0, 0, 0, 0, 0, 0, 0, 0<br/>0, 0, 0, 0, 0, 0, 0, 0, 1, 0, 11, 14, 12, 22]<br/>class = 24>, fillcolor="#e55b391e"] ;
90 -> 152 ;
153 [label=<Viscera.weight &le; 0.063<br/>gini = 0.843<br/>samples = 62<br/>value = [0, 10, 5, 2, 1, 0, 0, 0, 0, 0, 0, 0, 0, 0<br/>0, 0, 0, 0, 0, 0, 0, 0, 1, 0, 10, 13, 9, 11]<br/>class = 27>, fillcolor="#e539610a"] ;
152 -> 153 ;
154 [label=<Length &le; 0.352<br/>gini = 0.835<br/>samples = 58<br/>value = [0, 10, 5, 1, 1, 0, 0, 0, 0, 0, 0, 0, 0, 0<br/>0, 0, 0, 0, 0, 0, 0, 0, 1, 0, 10, 13, 6, 11]<br/>class = 27>, fillcolor="#e539610b"] ;
153 -> 154 ;
155 [label=<Height &le; 0.093<br/>gini = 0.819<br/>samples = 44<br/>value = [0, 9, 4, 1, 1, 0, 0, 0, 0, 0, 0, 0, 0, 0<br/>0, 0, 0, 0, 0, 0, 0, 0, 1, 0, 5, 11, 2, 10]<br/>class = 27>, fillcolor="#e5396108"] ;
154 -> 155 ;
156 [label=<Viscera.weight &le; 0.026<br/>gini = 0.834<br/>samples = 37<br/>value = [0, 9, 4, 1, 1, 0, 0, 0, 0, 0, 0, 0, 0, 0<br/>0, 0, 0, 0, 0, 0, 0, 0, 1, 0, 5, 7, 2, 7]<br/>class = 7>, fillcolor="#e5a33911"] ;
155 -> 156 ;
157 [label=<gini = 0.0<br/>samples = 2<br/>value = [0, 0, 0, 0, 0, 0, 0, 0, 0, 0, 0, 0, 0, 0<br/>0, 0, 0, 0, 0, 0, 0, 0, 0, 0, 0, 2, 0, 0]<br/>class = 27>, fillcolor="#e53961ff"] ;
156 -> 157 ;
158 [label=<Shucked.weight &le; 0.051<br/>gini = 0.834<br/>samples = 35<br/>value = [0, 9, 4, 1, 1, 0, 0, 0, 0, 0, 0, 0, 0, 0<br/>0, 0, 0, 0, 0, 0, 0, 0, 1, 0, 5, 5, 2, 7]<br/>class = 7>, fillcolor="#e5a33912"] ;
156 -> 158 ;
159 [label=<gini = 0.56<br/>samples = 5<br/>value = [0, 0, 1, 0, 0, 0, 0, 0, 0, 0, 0, 0, 0, 0<br/>0, 0, 0, 0, 0, 0, 0, 0, 0, 0, 0, 0, 1, 3]<br/>class = 24>, fillcolor="#e55b397f"] ;
158 -> 159 ;
160 [label=<gini = 0.822<br/>samples = 30<br/>value = [0, 9, 3, 1, 1, 0, 0, 0, 0, 0, 0, 0, 0, 0<br/>0, 0, 0, 0, 0, 0, 0, 0, 1, 0, 5, 5, 1, 4]<br/>class = 7>, fillcolor="#e5a33929"] ;
158 -> 160 ;
161 [label=<Shell.weight &le; 0.065<br/>gini = 0.49<br/>samples = 7<br/>value = [0, 0, 0, 0, 0, 0, 0, 0, 0, 0, 0, 0, 0, 0<br/>0, 0, 0, 0, 0, 0, 0, 0, 0, 0, 0, 4, 0, 3]<br/>class = 27>, fillcolor="#e5396140"] ;
155 -> 161 ;
162 [label=<gini = 0.0<br/>samples = 2<br/>value = [0, 0, 0, 0, 0, 0, 0, 0, 0, 0, 0, 0, 0, 0<br/>0, 0, 0, 0, 0, 0, 0, 0, 0, 0, 0, 2, 0, 0]<br/>class = 27>, fillcolor="#e53961ff"] ;
161 -> 162 ;
163 [label=<Whole.weight &le; 0.218<br/>gini = 0.48<br/>samples = 5<br/>value = [0, 0, 0, 0, 0, 0, 0, 0, 0, 0, 0, 0, 0, 0<br/>0, 0, 0, 0, 0, 0, 0, 0, 0, 0, 0, 2, 0, 3]<br/>class = 24>, fillcolor="#e55b3955"] ;
161 -> 163 ;
164 [label=<gini = 0.0<br/>samples = 3<br/>value = [0, 0, 0, 0, 0, 0, 0, 0, 0, 0, 0, 0, 0, 0<br/>0, 0, 0, 0, 0, 0, 0, 0, 0, 0, 0, 0, 0, 3]<br/>class = 24>, fillcolor="#e55b39ff"] ;
163 -> 164 ;
165 [label=<gini = 0.0<br/>samples = 2<br/>value = [0, 0, 0, 0, 0, 0, 0, 0, 0, 0, 0, 0, 0, 0<br/>0, 0, 0, 0, 0, 0, 0, 0, 0, 0, 0, 2, 0, 0]<br/>class = 27>, fillcolor="#e53961ff"] ;
163 -> 165 ;
166 [label=<Diameter &le; 0.275<br/>gini = 0.755<br/>samples = 14<br/>value = [0, 1, 1, 0, 0, 0, 0, 0, 0, 0, 0, 0, 0, 0<br/>0, 0, 0, 0, 0, 0, 0, 0, 0, 0, 5, 2, 4, 1]<br/>class = 2>, fillcolor="#e539861a"] ;
154 -> 166 ;
167 [label=<Shucked.weight &le; 0.075<br/>gini = 0.531<br/>samples = 8<br/>value = [0, 0, 0, 0, 0, 0, 0, 0, 0, 0, 0, 0, 0, 0<br/>0, 0, 0, 0, 0, 0, 0, 0, 0, 0, 5, 1, 2, 0]<br/>class = 2>, fillcolor="#e5398680"] ;
166 -> 167 ;
168 [label=<gini = 0.0<br/>samples = 2<br/>value = [0, 0, 0, 0, 0, 0, 0, 0, 0, 0, 0, 0, 0, 0<br/>0, 0, 0, 0, 0, 0, 0, 0, 0, 0, 0, 0, 2, 0]<br/>class = 25>, fillcolor="#e5393cff"] ;
167 -> 168 ;
169 [label=<Viscera.weight &le; 0.054<br/>gini = 0.278<br/>samples = 6<br/>value = [0, 0, 0, 0, 0, 0, 0, 0, 0, 0, 0, 0, 0, 0<br/>0, 0, 0, 0, 0, 0, 0, 0, 0, 0, 5, 1, 0, 0]<br/>class = 2>, fillcolor="#e53986cc"] ;
167 -> 169 ;
170 [label=<gini = 0.0<br/>samples = 5<br/>value = [0, 0, 0, 0, 0, 0, 0, 0, 0, 0, 0, 0, 0, 0<br/>0, 0, 0, 0, 0, 0, 0, 0, 0, 0, 5, 0, 0, 0]<br/>class = 2>, fillcolor="#e53986ff"] ;
169 -> 170 ;
171 [label=<gini = 0.0<br/>samples = 1<br/>value = [0, 0, 0, 0, 0, 0, 0, 0, 0, 0, 0, 0, 0, 0<br/>0, 0, 0, 0, 0, 0, 0, 0, 0, 0, 0, 1, 0, 0]<br/>class = 27>, fillcolor="#e53961ff"] ;
169 -> 171 ;
172 [label=<Height &le; 0.097<br/>gini = 0.778<br/>samples = 6<br/>value = [0, 1, 1, 0, 0, 0, 0, 0, 0, 0, 0, 0, 0, 0<br/>0, 0, 0, 0, 0, 0, 0, 0, 0, 0, 0, 1, 2, 1]<br/>class = 25>, fillcolor="#e5393c33"] ;
166 -> 172 ;
173 [label=<Whole.weight &le; 0.234<br/>gini = 0.667<br/>samples = 3<br/>value = [0, 1, 1, 0, 0, 0, 0, 0, 0, 0, 0, 0, 0, 0<br/>0, 0, 0, 0, 0, 0, 0, 0, 0, 0, 0, 1, 0, 0]<br/>class = 7>, fillcolor="#e5a33900"] ;
172 -> 173 ;
174 [label=<gini = 0.5<br/>samples = 2<br/>value = [0, 1, 0, 0, 0, 0, 0, 0, 0, 0, 0, 0, 0, 0<br/>0, 0, 0, 0, 0, 0, 0, 0, 0, 0, 0, 1, 0, 0]<br/>class = 7>, fillcolor="#e5a33900"] ;
173 -> 174 ;
175 [label=<gini = 0.0<br/>samples = 1<br/>value = [0, 0, 1, 0, 0, 0, 0, 0, 0, 0, 0, 0, 0, 0<br/>0, 0, 0, 0, 0, 0, 0, 0, 0, 0, 0, 0, 0, 0]<br/>class = 9>, fillcolor="#e5c839ff"] ;
173 -> 175 ;
176 [label=<Shucked.weight &le; 0.086<br/>gini = 0.444<br/>samples = 3<br/>value = [0, 0, 0, 0, 0, 0, 0, 0, 0, 0, 0, 0, 0, 0<br/>0, 0, 0, 0, 0, 0, 0, 0, 0, 0, 0, 0, 2, 1]<br/>class = 25>, fillcolor="#e5393c7f"] ;
172 -> 176 ;
177 [label=<gini = 0.0<br/>samples = 1<br/>value = [0, 0, 0, 0, 0, 0, 0, 0, 0, 0, 0, 0, 0, 0<br/>0, 0, 0, 0, 0, 0, 0, 0, 0, 0, 0, 0, 1, 0]<br/>class = 25>, fillcolor="#e5393cff"] ;
176 -> 177 ;
178 [label=<gini = 0.5<br/>samples = 2<br/>value = [0, 0, 0, 0, 0, 0, 0, 0, 0, 0, 0, 0, 0, 0<br/>0, 0, 0, 0, 0, 0, 0, 0, 0, 0, 0, 0, 1, 1]<br/>class = 25>, fillcolor="#e5393c00"] ;
176 -> 178 ;
179 [label=<Whole.weight &le; 0.267<br/>gini = 0.375<br/>samples = 4<br/>value = [0, 0, 0, 1, 0, 0, 0, 0, 0, 0, 0, 0, 0, 0<br/>0, 0, 0, 0, 0, 0, 0, 0, 0, 0, 0, 0, 3, 0]<br/>class = 25>, fillcolor="#e5393caa"] ;
153 -> 179 ;
180 [label=<gini = 0.0<br/>samples = 1<br/>value = [0, 0, 0, 1, 0, 0, 0, 0, 0, 0, 0, 0, 0, 0<br/>0, 0, 0, 0, 0, 0, 0, 0, 0, 0, 0, 0, 0, 0]<br/>class = 10>, fillcolor="#dce539ff"] ;
179 -> 180 ;
181 [label=<gini = 0.0<br/>samples = 3<br/>value = [0, 0, 0, 0, 0, 0, 0, 0, 0, 0, 0, 0, 0, 0<br/>0, 0, 0, 0, 0, 0, 0, 0, 0, 0, 0, 0, 3, 0]<br/>class = 25>, fillcolor="#e5393cff"] ;
179 -> 181 ;
182 [label=<Viscera.weight &le; 0.051<br/>gini = 0.68<br/>samples = 21<br/>value = [0, 2, 2, 1, 0, 0, 0, 0, 0, 0, 0, 0, 0, 0<br/>0, 0, 0, 0, 0, 0, 0, 0, 0, 0, 1, 1, 3, 11]<br/>class = 24>, fillcolor="#e55b3971"] ;
152 -> 182 ;
183 [label=<Whole.weight &le; 0.244<br/>gini = 0.667<br/>samples = 3<br/>value = [0, 1, 1, 0, 0, 0, 0, 0, 0, 0, 0, 0, 0, 0<br/>0, 0, 0, 0, 0, 0, 0, 0, 0, 0, 1, 0, 0, 0]<br/>class = 7>, fillcolor="#e5a33900"] ;
182 -> 183 ;
184 [label=<gini = 0.0<br/>samples = 1<br/>value = [0, 1, 0, 0, 0, 0, 0, 0, 0, 0, 0, 0, 0, 0<br/>0, 0, 0, 0, 0, 0, 0, 0, 0, 0, 0, 0, 0, 0]<br/>class = 7>, fillcolor="#e5a339ff"] ;
183 -> 184 ;
185 [label=<Shell.weight &le; 0.087<br/>gini = 0.5<br/>samples = 2<br/>value = [0, 0, 1, 0, 0, 0, 0, 0, 0, 0, 0, 0, 0, 0<br/>0, 0, 0, 0, 0, 0, 0, 0, 0, 0, 1, 0, 0, 0]<br/>class = 9>, fillcolor="#e5c83900"] ;
183 -> 185 ;
186 [label=<gini = 0.0<br/>samples = 1<br/>value = [0, 0, 1, 0, 0, 0, 0, 0, 0, 0, 0, 0, 0, 0<br/>0, 0, 0, 0, 0, 0, 0, 0, 0, 0, 0, 0, 0, 0]<br/>class = 9>, fillcolor="#e5c839ff"] ;
185 -> 186 ;
187 [label=<gini = 0.0<br/>samples = 1<br/>value = [0, 0, 0, 0, 0, 0, 0, 0, 0, 0, 0, 0, 0, 0<br/>0, 0, 0, 0, 0, 0, 0, 0, 0, 0, 1, 0, 0, 0]<br/>class = 2>, fillcolor="#e53986ff"] ;
185 -> 187 ;
188 [label=<Shucked.weight &le; 0.145<br/>gini = 0.586<br/>samples = 18<br/>value = [0, 1, 1, 1, 0, 0, 0, 0, 0, 0, 0, 0, 0, 0<br/>0, 0, 0, 0, 0, 0, 0, 0, 0, 0, 0, 1, 3, 11]<br/>class = 24>, fillcolor="#e55b3988"] ;
182 -> 188 ;
189 [label=<Whole.weight &le; 0.273<br/>gini = 0.54<br/>samples = 17<br/>value = [0, 1, 1, 1, 0, 0, 0, 0, 0, 0, 0, 0, 0, 0<br/>0, 0, 0, 0, 0, 0, 0, 0, 0, 0, 0, 0, 3, 11]<br/>class = 24>, fillcolor="#e55b3992"] ;
188 -> 189 ;
190 [label=<Shucked.weight &le; 0.101<br/>gini = 0.667<br/>samples = 9<br/>value = [0, 1, 1, 0, 0, 0, 0, 0, 0, 0, 0, 0, 0, 0<br/>0, 0, 0, 0, 0, 0, 0, 0, 0, 0, 0, 0, 3, 4]<br/>class = 24>, fillcolor="#e55b392a"] ;
189 -> 190 ;
191 [label=<Viscera.weight &le; 0.063<br/>gini = 0.32<br/>samples = 5<br/>value = [0, 1, 0, 0, 0, 0, 0, 0, 0, 0, 0, 0, 0, 0<br/>0, 0, 0, 0, 0, 0, 0, 0, 0, 0, 0, 0, 0, 4]<br/>class = 24>, fillcolor="#e55b39bf"] ;
190 -> 191 ;
192 [label=<gini = 0.0<br/>samples = 4<br/>value = [0, 0, 0, 0, 0, 0, 0, 0, 0, 0, 0, 0, 0, 0<br/>0, 0, 0, 0, 0, 0, 0, 0, 0, 0, 0, 0, 0, 4]<br/>class = 24>, fillcolor="#e55b39ff"] ;
191 -> 192 ;
193 [label=<gini = 0.0<br/>samples = 1<br/>value = [0, 1, 0, 0, 0, 0, 0, 0, 0, 0, 0, 0, 0, 0<br/>0, 0, 0, 0, 0, 0, 0, 0, 0, 0, 0, 0, 0, 0]<br/>class = 7>, fillcolor="#e5a339ff"] ;
191 -> 193 ;
194 [label=<Shucked.weight &le; 0.115<br/>gini = 0.375<br/>samples = 4<br/>value = [0, 0, 1, 0, 0, 0, 0, 0, 0, 0, 0, 0, 0, 0<br/>0, 0, 0, 0, 0, 0, 0, 0, 0, 0, 0, 0, 3, 0]<br/>class = 25>, fillcolor="#e5393caa"] ;
190 -> 194 ;
195 [label=<gini = 0.0<br/>samples = 3<br/>value = [0, 0, 0, 0, 0, 0, 0, 0, 0, 0, 0, 0, 0, 0<br/>0, 0, 0, 0, 0, 0, 0, 0, 0, 0, 0, 0, 3, 0]<br/>class = 25>, fillcolor="#e5393cff"] ;
194 -> 195 ;
196 [label=<gini = 0.0<br/>samples = 1<br/>value = [0, 0, 1, 0, 0, 0, 0, 0, 0, 0, 0, 0, 0, 0<br/>0, 0, 0, 0, 0, 0, 0, 0, 0, 0, 0, 0, 0, 0]<br/>class = 9>, fillcolor="#e5c839ff"] ;
194 -> 196 ;
197 [label=<Diameter &le; 0.287<br/>gini = 0.219<br/>samples = 8<br/>value = [0, 0, 0, 1, 0, 0, 0, 0, 0, 0, 0, 0, 0, 0<br/>0, 0, 0, 0, 0, 0, 0, 0, 0, 0, 0, 0, 0, 7]<br/>class = 24>, fillcolor="#e55b39db"] ;
189 -> 197 ;
198 [label=<gini = 0.0<br/>samples = 1<br/>value = [0, 0, 0, 1, 0, 0, 0, 0, 0, 0, 0, 0, 0, 0<br/>0, 0, 0, 0, 0, 0, 0, 0, 0, 0, 0, 0, 0, 0]<br/>class = 10>, fillcolor="#dce539ff"] ;
197 -> 198 ;
199 [label=<gini = 0.0<br/>samples = 7<br/>value = [0, 0, 0, 0, 0, 0, 0, 0, 0, 0, 0, 0, 0, 0<br/>0, 0, 0, 0, 0, 0, 0, 0, 0, 0, 0, 0, 0, 7]<br/>class = 24>, fillcolor="#e55b39ff"] ;
197 -> 199 ;
200 [label=<gini = 0.0<br/>samples = 1<br/>value = [0, 0, 0, 0, 0, 0, 0, 0, 0, 0, 0, 0, 0, 0<br/>0, 0, 0, 0, 0, 0, 0, 0, 0, 0, 0, 1, 0, 0]<br/>class = 27>, fillcolor="#e53961ff"] ;
188 -> 200 ;
201 [label=<Sex &le; 0.5<br/>gini = 0.804<br/>samples = 477<br/>value = [0, 35, 22, 15, 9, 2, 3, 4, 0, 1, 0, 0, 0, 0<br/>0, 0, 0, 0, 0, 0, 0, 0, 0, 3, 47, 138, 129<br/>69]<br/>class = 27>, fillcolor="#e5396107"] ;
89 -> 201 ;
202 [label=<Shucked.weight &le; 0.193<br/>gini = 0.86<br/>samples = 92<br/>value = [0, 15, 10, 6, 6, 0, 0, 2, 0, 0, 0, 0, 0, 0<br/>0, 0, 0, 0, 0, 0, 0, 0, 0, 0, 6, 13, 17, 17]<br/>class = 25>, fillcolor="#e5393c00"] ;
201 -> 202 ;
203 [label=<Shucked.weight &le; 0.128<br/>gini = 0.838<br/>samples = 65<br/>value = [0, 10, 9, 5, 5, 0, 0, 2, 0, 0, 0, 0, 0, 0<br/>0, 0, 0, 0, 0, 0, 0, 0, 0, 0, 0, 5, 13, 16]<br/>class = 24>, fillcolor="#e55b390f"] ;
202 -> 203 ;
204 [label=<Diameter &le; 0.3<br/>gini = 0.612<br/>samples = 7<br/>value = [0, 4, 1, 0, 0, 0, 0, 1, 0, 0, 0, 0, 0, 0<br/>0, 0, 0, 0, 0, 0, 0, 0, 0, 0, 0, 1, 0, 0]<br/>class = 7>, fillcolor="#e5a3397f"] ;
203 -> 204 ;
205 [label=<gini = 0.0<br/>samples = 1<br/>value = [0, 0, 0, 0, 0, 0, 0, 0, 0, 0, 0, 0, 0, 0<br/>0, 0, 0, 0, 0, 0, 0, 0, 0, 0, 0, 1, 0, 0]<br/>class = 27>, fillcolor="#e53961ff"] ;
204 -> 205 ;
206 [label=<Viscera.weight &le; 0.087<br/>gini = 0.5<br/>samples = 6<br/>value = [0, 4, 1, 0, 0, 0, 0, 1, 0, 0, 0, 0, 0, 0<br/>0, 0, 0, 0, 0, 0, 0, 0, 0, 0, 0, 0, 0, 0]<br/>class = 7>, fillcolor="#e5a33999"] ;
204 -> 206 ;
207 [label=<Diameter &le; 0.34<br/>gini = 0.32<br/>samples = 5<br/>value = [0, 4, 1, 0, 0, 0, 0, 0, 0, 0, 0, 0, 0, 0<br/>0, 0, 0, 0, 0, 0, 0, 0, 0, 0, 0, 0, 0, 0]<br/>class = 7>, fillcolor="#e5a339bf"] ;
206 -> 207 ;
208 [label=<gini = 0.0<br/>samples = 4<br/>value = [0, 4, 0, 0, 0, 0, 0, 0, 0, 0, 0, 0, 0, 0<br/>0, 0, 0, 0, 0, 0, 0, 0, 0, 0, 0, 0, 0, 0]<br/>class = 7>, fillcolor="#e5a339ff"] ;
207 -> 208 ;
209 [label=<gini = 0.0<br/>samples = 1<br/>value = [0, 0, 1, 0, 0, 0, 0, 0, 0, 0, 0, 0, 0, 0<br/>0, 0, 0, 0, 0, 0, 0, 0, 0, 0, 0, 0, 0, 0]<br/>class = 9>, fillcolor="#e5c839ff"] ;
207 -> 209 ;
210 [label=<gini = 0.0<br/>samples = 1<br/>value = [0, 0, 0, 0, 0, 0, 0, 1, 0, 0, 0, 0, 0, 0<br/>0, 0, 0, 0, 0, 0, 0, 0, 0, 0, 0, 0, 0, 0]<br/>class = 19>, fillcolor="#47e539ff"] ;
206 -> 210 ;
211 [label=<Height &le; 0.097<br/>gini = 0.824<br/>samples = 58<br/>value = [0, 6, 8, 5, 5, 0, 0, 1, 0, 0, 0, 0, 0, 0<br/>0, 0, 0, 0, 0, 0, 0, 0, 0, 0, 0, 4, 13, 16]<br/>class = 24>, fillcolor="#e55b3911"] ;
203 -> 211 ;
212 [label=<gini = 0.0<br/>samples = 3<br/>value = [0, 0, 0, 0, 0, 0, 0, 0, 0, 0, 0, 0, 0, 0<br/>0, 0, 0, 0, 0, 0, 0, 0, 0, 0, 0, 0, 0, 3]<br/>class = 24>, fillcolor="#e55b39ff"] ;
211 -> 212 ;
213 [label=<Length &le; 0.442<br/>gini = 0.833<br/>samples = 55<br/>value = [0, 6, 8, 5, 5, 0, 0, 1, 0, 0, 0, 0, 0, 0<br/>0, 0, 0, 0, 0, 0, 0, 0, 0, 0, 0, 4, 13, 13]<br/>class = 25>, fillcolor="#e5393c00"] ;
211 -> 213 ;
214 [label=<Whole.weight &le; 0.41<br/>gini = 0.843<br/>samples = 37<br/>value = [0, 6, 7, 4, 3, 0, 0, 0, 0, 0, 0, 0, 0, 0<br/>0, 0, 0, 0, 0, 0, 0, 0, 0, 0, 0, 4, 8, 5]<br/>class = 25>, fillcolor="#e5393c09"] ;
213 -> 214 ;
215 [label=<Diameter &le; 0.345<br/>gini = 0.833<br/>samples = 30<br/>value = [0, 3, 4, 4, 2, 0, 0, 0, 0, 0, 0, 0, 0, 0<br/>0, 0, 0, 0, 0, 0, 0, 0, 0, 0, 0, 4, 8, 5]<br/>class = 25>, fillcolor="#e5393c1f"] ;
214 -> 215 ;
216 [label=<gini = 0.82<br/>samples = 27<br/>value = [0, 3, 4, 4, 1, 0, 0, 0, 0, 0, 0, 0, 0, 0<br/>0, 0, 0, 0, 0, 0, 0, 0, 0, 0, 0, 4, 8, 3]<br/>class = 25>, fillcolor="#e5393c2c"] ;
215 -> 216 ;
217 [label=<gini = 0.444<br/>samples = 3<br/>value = [0, 0, 0, 0, 1, 0, 0, 0, 0, 0, 0, 0, 0, 0<br/>0, 0, 0, 0, 0, 0, 0, 0, 0, 0, 0, 0, 0, 2]<br/>class = 24>, fillcolor="#e55b397f"] ;
215 -> 217 ;
218 [label=<Diameter &le; 0.343<br/>gini = 0.612<br/>samples = 7<br/>value = [0, 3, 3, 0, 1, 0, 0, 0, 0, 0, 0, 0, 0, 0<br/>0, 0, 0, 0, 0, 0, 0, 0, 0, 0, 0, 0, 0, 0]<br/>class = 7>, fillcolor="#e5a33900"] ;
214 -> 218 ;
219 [label=<gini = 0.375<br/>samples = 4<br/>value = [0, 3, 0, 0, 1, 0, 0, 0, 0, 0, 0, 0, 0, 0<br/>0, 0, 0, 0, 0, 0, 0, 0, 0, 0, 0, 0, 0, 0]<br/>class = 7>, fillcolor="#e5a339aa"] ;
218 -> 219 ;
220 [label=<gini = 0.0<br/>samples = 3<br/>value = [0, 0, 3, 0, 0, 0, 0, 0, 0, 0, 0, 0, 0, 0<br/>0, 0, 0, 0, 0, 0, 0, 0, 0, 0, 0, 0, 0, 0]<br/>class = 9>, fillcolor="#e5c839ff"] ;
218 -> 220 ;
221 [label=<Length &le; 0.452<br/>gini = 0.704<br/>samples = 18<br/>value = [0, 0, 1, 1, 2, 0, 0, 1, 0, 0, 0, 0, 0, 0<br/>0, 0, 0, 0, 0, 0, 0, 0, 0, 0, 0, 0, 5, 8]<br/>class = 24>, fillcolor="#e55b393b"] ;
213 -> 221 ;
222 [label=<Whole.weight &le; 0.456<br/>gini = 0.449<br/>samples = 7<br/>value = [0, 0, 1, 1, 0, 0, 0, 0, 0, 0, 0, 0, 0, 0<br/>0, 0, 0, 0, 0, 0, 0, 0, 0, 0, 0, 0, 0, 5]<br/>class = 24>, fillcolor="#e55b39aa"] ;
221 -> 222 ;
223 [label=<gini = 0.0<br/>samples = 5<br/>value = [0, 0, 0, 0, 0, 0, 0, 0, 0, 0, 0, 0, 0, 0<br/>0, 0, 0, 0, 0, 0, 0, 0, 0, 0, 0, 0, 0, 5]<br/>class = 24>, fillcolor="#e55b39ff"] ;
222 -> 223 ;
224 [label=<gini = 0.5<br/>samples = 2<br/>value = [0, 0, 1, 1, 0, 0, 0, 0, 0, 0, 0, 0, 0, 0<br/>0, 0, 0, 0, 0, 0, 0, 0, 0, 0, 0, 0, 0, 0]<br/>class = 9>, fillcolor="#e5c83900"] ;
222 -> 224 ;
225 [label=<Shell.weight &le; 0.139<br/>gini = 0.678<br/>samples = 11<br/>value = [0, 0, 0, 0, 2, 0, 0, 1, 0, 0, 0, 0, 0, 0<br/>0, 0, 0, 0, 0, 0, 0, 0, 0, 0, 0, 0, 5, 3]<br/>class = 25>, fillcolor="#e5393c40"] ;
221 -> 225 ;
226 [label=<gini = 0.617<br/>samples = 9<br/>value = [0, 0, 0, 0, 2, 0, 0, 1, 0, 0, 0, 0, 0, 0<br/>0, 0, 0, 0, 0, 0, 0, 0, 0, 0, 0, 0, 5, 1]<br/>class = 25>, fillcolor="#e5393c6d"] ;
225 -> 226 ;
227 [label=<gini = 0.0<br/>samples = 2<br/>value = [0, 0, 0, 0, 0, 0, 0, 0, 0, 0, 0, 0, 0, 0<br/>0, 0, 0, 0, 0, 0, 0, 0, 0, 0, 0, 0, 0, 2]<br/>class = 24>, fillcolor="#e55b39ff"] ;
225 -> 227 ;
228 [label=<Shell.weight &le; 0.125<br/>gini = 0.801<br/>samples = 27<br/>value = [0, 5, 1, 1, 1, 0, 0, 0, 0, 0, 0, 0, 0, 0<br/>0, 0, 0, 0, 0, 0, 0, 0, 0, 0, 6, 8, 4, 1]<br/>class = 27>, fillcolor="#e5396118"] ;
202 -> 228 ;
229 [label=<Shell.weight &le; 0.12<br/>gini = 0.594<br/>samples = 8<br/>value = [0, 4, 0, 0, 1, 0, 0, 0, 0, 0, 0, 0, 0, 0<br/>0, 0, 0, 0, 0, 0, 0, 0, 0, 0, 3, 0, 0, 0]<br/>class = 7>, fillcolor="#e5a33933"] ;
228 -> 229 ;
230 [label=<gini = 0.0<br/>samples = 3<br/>value = [0, 0, 0, 0, 0, 0, 0, 0, 0, 0, 0, 0, 0, 0<br/>0, 0, 0, 0, 0, 0, 0, 0, 0, 0, 3, 0, 0, 0]<br/>class = 2>, fillcolor="#e53986ff"] ;
229 -> 230 ;
231 [label=<Shucked.weight &le; 0.196<br/>gini = 0.32<br/>samples = 5<br/>value = [0, 4, 0, 0, 1, 0, 0, 0, 0, 0, 0, 0, 0, 0<br/>0, 0, 0, 0, 0, 0, 0, 0, 0, 0, 0, 0, 0, 0]<br/>class = 7>, fillcolor="#e5a339bf"] ;
229 -> 231 ;
232 [label=<gini = 0.0<br/>samples = 1<br/>value = [0, 0, 0, 0, 1, 0, 0, 0, 0, 0, 0, 0, 0, 0<br/>0, 0, 0, 0, 0, 0, 0, 0, 0, 0, 0, 0, 0, 0]<br/>class = 8>, fillcolor="#b7e539ff"] ;
231 -> 232 ;
233 [label=<gini = 0.0<br/>samples = 4<br/>value = [0, 4, 0, 0, 0, 0, 0, 0, 0, 0, 0, 0, 0, 0<br/>0, 0, 0, 0, 0, 0, 0, 0, 0, 0, 0, 0, 0, 0]<br/>class = 7>, fillcolor="#e5a339ff"] ;
231 -> 233 ;
234 [label=<Shucked.weight &le; 0.201<br/>gini = 0.742<br/>samples = 19<br/>value = [0, 1, 1, 1, 0, 0, 0, 0, 0, 0, 0, 0, 0, 0<br/>0, 0, 0, 0, 0, 0, 0, 0, 0, 0, 3, 8, 4, 1]<br/>class = 27>, fillcolor="#e5396144"] ;
228 -> 234 ;
235 [label=<gini = 0.0<br/>samples = 4<br/>value = [0, 0, 0, 0, 0, 0, 0, 0, 0, 0, 0, 0, 0, 0<br/>0, 0, 0, 0, 0, 0, 0, 0, 0, 0, 0, 4, 0, 0]<br/>class = 27>, fillcolor="#e53961ff"] ;
234 -> 235 ;
236 [label=<Length &le; 0.472<br/>gini = 0.8<br/>samples = 15<br/>value = [0, 1, 1, 1, 0, 0, 0, 0, 0, 0, 0, 0, 0, 0<br/>0, 0, 0, 0, 0, 0, 0, 0, 0, 0, 3, 4, 4, 1]<br/>class = 27>, fillcolor="#e5396100"] ;
234 -> 236 ;
237 [label=<Height &le; 0.112<br/>gini = 0.741<br/>samples = 9<br/>value = [0, 1, 1, 1, 0, 0, 0, 0, 0, 0, 0, 0, 0, 0<br/>0, 0, 0, 0, 0, 0, 0, 0, 0, 0, 1, 0, 4, 1]<br/>class = 25>, fillcolor="#e5393c60"] ;
236 -> 237 ;
238 [label=<Shell.weight &le; 0.132<br/>gini = 0.75<br/>samples = 4<br/>value = [0, 0, 1, 1, 0, 0, 0, 0, 0, 0, 0, 0, 0, 0<br/>0, 0, 0, 0, 0, 0, 0, 0, 0, 0, 1, 0, 0, 1]<br/>class = 9>, fillcolor="#e5c83900"] ;
237 -> 238 ;
239 [label=<gini = 0.667<br/>samples = 3<br/>value = [0, 0, 1, 1, 0, 0, 0, 0, 0, 0, 0, 0, 0, 0<br/>0, 0, 0, 0, 0, 0, 0, 0, 0, 0, 1, 0, 0, 0]<br/>class = 9>, fillcolor="#e5c83900"] ;
238 -> 239 ;
240 [label=<gini = 0.0<br/>samples = 1<br/>value = [0, 0, 0, 0, 0, 0, 0, 0, 0, 0, 0, 0, 0, 0<br/>0, 0, 0, 0, 0, 0, 0, 0, 0, 0, 0, 0, 0, 1]<br/>class = 24>, fillcolor="#e55b39ff"] ;
238 -> 240 ;
241 [label=<Diameter &le; 0.352<br/>gini = 0.32<br/>samples = 5<br/>value = [0, 1, 0, 0, 0, 0, 0, 0, 0, 0, 0, 0, 0, 0<br/>0, 0, 0, 0, 0, 0, 0, 0, 0, 0, 0, 0, 4, 0]<br/>class = 25>, fillcolor="#e5393cbf"] ;
237 -> 241 ;
242 [label=<gini = 0.0<br/>samples = 1<br/>value = [0, 1, 0, 0, 0, 0, 0, 0, 0, 0, 0, 0, 0, 0<br/>0, 0, 0, 0, 0, 0, 0, 0, 0, 0, 0, 0, 0, 0]<br/>class = 7>, fillcolor="#e5a339ff"] ;
241 -> 242 ;
243 [label=<gini = 0.0<br/>samples = 4<br/>value = [0, 0, 0, 0, 0, 0, 0, 0, 0, 0, 0, 0, 0, 0<br/>0, 0, 0, 0, 0, 0, 0, 0, 0, 0, 0, 0, 4, 0]<br/>class = 25>, fillcolor="#e5393cff"] ;
241 -> 243 ;
244 [label=<Viscera.weight &le; 0.116<br/>gini = 0.444<br/>samples = 6<br/>value = [0, 0, 0, 0, 0, 0, 0, 0, 0, 0, 0, 0, 0, 0<br/>0, 0, 0, 0, 0, 0, 0, 0, 0, 0, 2, 4, 0, 0]<br/>class = 27>, fillcolor="#e539617f"] ;
236 -> 244 ;
245 [label=<Whole.weight &le; 0.593<br/>gini = 0.444<br/>samples = 3<br/>value = [0, 0, 0, 0, 0, 0, 0, 0, 0, 0, 0, 0, 0, 0<br/>0, 0, 0, 0, 0, 0, 0, 0, 0, 0, 2, 1, 0, 0]<br/>class = 2>, fillcolor="#e539867f"] ;
244 -> 245 ;
246 [label=<gini = 0.0<br/>samples = 2<br/>value = [0, 0, 0, 0, 0, 0, 0, 0, 0, 0, 0, 0, 0, 0<br/>0, 0, 0, 0, 0, 0, 0, 0, 0, 0, 2, 0, 0, 0]<br/>class = 2>, fillcolor="#e53986ff"] ;
245 -> 246 ;
247 [label=<gini = 0.0<br/>samples = 1<br/>value = [0, 0, 0, 0, 0, 0, 0, 0, 0, 0, 0, 0, 0, 0<br/>0, 0, 0, 0, 0, 0, 0, 0, 0, 0, 0, 1, 0, 0]<br/>class = 27>, fillcolor="#e53961ff"] ;
245 -> 247 ;
248 [label=<gini = 0.0<br/>samples = 3<br/>value = [0, 0, 0, 0, 0, 0, 0, 0, 0, 0, 0, 0, 0, 0<br/>0, 0, 0, 0, 0, 0, 0, 0, 0, 0, 0, 3, 0, 0]<br/>class = 27>, fillcolor="#e53961ff"] ;
244 -> 248 ;
249 [label=<Shell.weight &le; 0.12<br/>gini = 0.776<br/>samples = 385<br/>value = [0, 20, 12, 9, 3, 2, 3, 2, 0, 1, 0, 0, 0, 0<br/>0, 0, 0, 0, 0, 0, 0, 0, 0, 3, 41, 125, 112<br/>52]<br/>class = 27>, fillcolor="#e539610c"] ;
201 -> 249 ;
250 [label=<Shucked.weight &le; 0.123<br/>gini = 0.774<br/>samples = 200<br/>value = [0, 8, 9, 3, 1, 2, 2, 0, 0, 0, 0, 0, 0, 0<br/>0, 0, 0, 0, 0, 0, 0, 0, 0, 3, 31, 74, 43, 24]<br/>class = 27>, fillcolor="#e5396132"] ;
249 -> 250 ;
251 [label=<Height &le; 0.097<br/>gini = 0.845<br/>samples = 27<br/>value = [0, 6, 4, 1, 0, 0, 1, 0, 0, 0, 0, 0, 0, 0<br/>0, 0, 0, 0, 0, 0, 0, 0, 0, 0, 3, 5, 3, 4]<br/>class = 7>, fillcolor="#e5a3390c"] ;
250 -> 251 ;
252 [label=<Viscera.weight &le; 0.06<br/>gini = 0.642<br/>samples = 9<br/>value = [0, 1, 0, 0, 0, 0, 0, 0, 0, 0, 0, 0, 0, 0<br/>0, 0, 0, 0, 0, 0, 0, 0, 0, 0, 1, 5, 1, 1]<br/>class = 27>, fillcolor="#e5396180"] ;
251 -> 252 ;
253 [label=<Sex &le; 1.5<br/>gini = 0.278<br/>samples = 6<br/>value = [0, 0, 0, 0, 0, 0, 0, 0, 0, 0, 0, 0, 0, 0<br/>0, 0, 0, 0, 0, 0, 0, 0, 0, 0, 0, 5, 0, 1]<br/>class = 27>, fillcolor="#e53961cc"] ;
252 -> 253 ;
254 [label=<gini = 0.0<br/>samples = 4<br/>value = [0, 0, 0, 0, 0, 0, 0, 0, 0, 0, 0, 0, 0, 0<br/>0, 0, 0, 0, 0, 0, 0, 0, 0, 0, 0, 4, 0, 0]<br/>class = 27>, fillcolor="#e53961ff"] ;
253 -> 254 ;
255 [label=<Viscera.weight &le; 0.047<br/>gini = 0.5<br/>samples = 2<br/>value = [0, 0, 0, 0, 0, 0, 0, 0, 0, 0, 0, 0, 0, 0<br/>0, 0, 0, 0, 0, 0, 0, 0, 0, 0, 0, 1, 0, 1]<br/>class = 27>, fillcolor="#e5396100"] ;
253 -> 255 ;
256 [label=<gini = 0.0<br/>samples = 1<br/>value = [0, 0, 0, 0, 0, 0, 0, 0, 0, 0, 0, 0, 0, 0<br/>0, 0, 0, 0, 0, 0, 0, 0, 0, 0, 0, 1, 0, 0]<br/>class = 27>, fillcolor="#e53961ff"] ;
255 -> 256 ;
257 [label=<gini = 0.0<br/>samples = 1<br/>value = [0, 0, 0, 0, 0, 0, 0, 0, 0, 0, 0, 0, 0, 0<br/>0, 0, 0, 0, 0, 0, 0, 0, 0, 0, 0, 0, 0, 1]<br/>class = 24>, fillcolor="#e55b39ff"] ;
255 -> 257 ;
258 [label=<Sex &le; 1.5<br/>gini = 0.667<br/>samples = 3<br/>value = [0, 1, 0, 0, 0, 0, 0, 0, 0, 0, 0, 0, 0, 0<br/>0, 0, 0, 0, 0, 0, 0, 0, 0, 0, 1, 0, 1, 0]<br/>class = 7>, fillcolor="#e5a33900"] ;
252 -> 258 ;
259 [label=<Length &le; 0.41<br/>gini = 0.5<br/>samples = 2<br/>value = [0, 0, 0, 0, 0, 0, 0, 0, 0, 0, 0, 0, 0, 0<br/>0, 0, 0, 0, 0, 0, 0, 0, 0, 0, 1, 0, 1, 0]<br/>class = 2>, fillcolor="#e5398600"] ;
258 -> 259 ;
260 [label=<gini = 0.0<br/>samples = 1<br/>value = [0, 0, 0, 0, 0, 0, 0, 0, 0, 0, 0, 0, 0, 0<br/>0, 0, 0, 0, 0, 0, 0, 0, 0, 0, 1, 0, 0, 0]<br/>class = 2>, fillcolor="#e53986ff"] ;
259 -> 260 ;
261 [label=<gini = 0.0<br/>samples = 1<br/>value = [0, 0, 0, 0, 0, 0, 0, 0, 0, 0, 0, 0, 0, 0<br/>0, 0, 0, 0, 0, 0, 0, 0, 0, 0, 0, 0, 1, 0]<br/>class = 25>, fillcolor="#e5393cff"] ;
259 -> 261 ;
262 [label=<gini = 0.0<br/>samples = 1<br/>value = [0, 1, 0, 0, 0, 0, 0, 0, 0, 0, 0, 0, 0, 0<br/>0, 0, 0, 0, 0, 0, 0, 0, 0, 0, 0, 0, 0, 0]<br/>class = 7>, fillcolor="#e5a339ff"] ;
258 -> 262 ;
263 [label=<Shucked.weight &le; 0.099<br/>gini = 0.815<br/>samples = 18<br/>value = [0, 5, 4, 1, 0, 0, 1, 0, 0, 0, 0, 0, 0, 0<br/>0, 0, 0, 0, 0, 0, 0, 0, 0, 0, 2, 0, 2, 3]<br/>class = 7>, fillcolor="#e5a33912"] ;
251 -> 263 ;
264 [label=<Shucked.weight &le; 0.092<br/>gini = 0.56<br/>samples = 5<br/>value = [0, 1, 0, 0, 0, 0, 0, 0, 0, 0, 0, 0, 0, 0<br/>0, 0, 0, 0, 0, 0, 0, 0, 0, 0, 0, 0, 1, 3]<br/>class = 24>, fillcolor="#e55b397f"] ;
263 -> 264 ;
265 [label=<Shucked.weight &le; 0.088<br/>gini = 0.5<br/>samples = 2<br/>value = [0, 1, 0, 0, 0, 0, 0, 0, 0, 0, 0, 0, 0, 0<br/>0, 0, 0, 0, 0, 0, 0, 0, 0, 0, 0, 0, 1, 0]<br/>class = 7>, fillcolor="#e5a33900"] ;
264 -> 265 ;
266 [label=<gini = 0.0<br/>samples = 1<br/>value = [0, 0, 0, 0, 0, 0, 0, 0, 0, 0, 0, 0, 0, 0<br/>0, 0, 0, 0, 0, 0, 0, 0, 0, 0, 0, 0, 1, 0]<br/>class = 25>, fillcolor="#e5393cff"] ;
265 -> 266 ;
267 [label=<gini = 0.0<br/>samples = 1<br/>value = [0, 1, 0, 0, 0, 0, 0, 0, 0, 0, 0, 0, 0, 0<br/>0, 0, 0, 0, 0, 0, 0, 0, 0, 0, 0, 0, 0, 0]<br/>class = 7>, fillcolor="#e5a339ff"] ;
265 -> 267 ;
268 [label=<gini = 0.0<br/>samples = 3<br/>value = [0, 0, 0, 0, 0, 0, 0, 0, 0, 0, 0, 0, 0, 0<br/>0, 0, 0, 0, 0, 0, 0, 0, 0, 0, 0, 0, 0, 3]<br/>class = 24>, fillcolor="#e55b39ff"] ;
264 -> 268 ;
269 [label=<Shell.weight &le; 0.1<br/>gini = 0.769<br/>samples = 13<br/>value = [0, 4, 4, 1, 0, 0, 1, 0, 0, 0, 0, 0, 0, 0<br/>0, 0, 0, 0, 0, 0, 0, 0, 0, 0, 2, 0, 1, 0]<br/>class = 7>, fillcolor="#e5a33900"] ;
263 -> 269 ;
270 [label=<Shucked.weight &le; 0.112<br/>gini = 0.64<br/>samples = 5<br/>value = [0, 2, 0, 0, 0, 0, 0, 0, 0, 0, 0, 0, 0, 0<br/>0, 0, 0, 0, 0, 0, 0, 0, 0, 0, 2, 0, 1, 0]<br/>class = 7>, fillcolor="#e5a33900"] ;
269 -> 270 ;
271 [label=<gini = 0.0<br/>samples = 1<br/>value = [0, 0, 0, 0, 0, 0, 0, 0, 0, 0, 0, 0, 0, 0<br/>0, 0, 0, 0, 0, 0, 0, 0, 0, 0, 0, 0, 1, 0]<br/>class = 25>, fillcolor="#e5393cff"] ;
270 -> 271 ;
272 [label=<gini = 0.5<br/>samples = 4<br/>value = [0, 2, 0, 0, 0, 0, 0, 0, 0, 0, 0, 0, 0, 0<br/>0, 0, 0, 0, 0, 0, 0, 0, 0, 0, 2, 0, 0, 0]<br/>class = 7>, fillcolor="#e5a33900"] ;
270 -> 272 ;
273 [label=<Height &le; 0.102<br/>gini = 0.656<br/>samples = 8<br/>value = [0, 2, 4, 1, 0, 0, 1, 0, 0, 0, 0, 0, 0, 0<br/>0, 0, 0, 0, 0, 0, 0, 0, 0, 0, 0, 0, 0, 0]<br/>class = 9>, fillcolor="#e5c83955"] ;
269 -> 273 ;
274 [label=<gini = 0.0<br/>samples = 3<br/>value = [0, 0, 3, 0, 0, 0, 0, 0, 0, 0, 0, 0, 0, 0<br/>0, 0, 0, 0, 0, 0, 0, 0, 0, 0, 0, 0, 0, 0]<br/>class = 9>, fillcolor="#e5c839ff"] ;
273 -> 274 ;
275 [label=<gini = 0.72<br/>samples = 5<br/>value = [0, 2, 1, 1, 0, 0, 1, 0, 0, 0, 0, 0, 0, 0<br/>0, 0, 0, 0, 0, 0, 0, 0, 0, 0, 0, 0, 0, 0]<br/>class = 7>, fillcolor="#e5a33940"] ;
273 -> 275 ;
276 [label=<Height &le; 0.123<br/>gini = 0.746<br/>samples = 173<br/>value = [0, 2, 5, 2, 1, 2, 1, 0, 0, 0, 0, 0, 0, 0<br/>0, 0, 0, 0, 0, 0, 0, 0, 0, 3, 28, 69, 40, 20]<br/>class = 27>, fillcolor="#e5396138"] ;
250 -> 276 ;
277 [label=<Shucked.weight &le; 0.237<br/>gini = 0.721<br/>samples = 157<br/>value = [0, 2, 4, 1, 0, 1, 0, 0, 0, 0, 0, 0, 0, 0<br/>0, 0, 0, 0, 0, 0, 0, 0, 0, 3, 24, 67, 39, 16]<br/>class = 27>, fillcolor="#e539613d"] ;
276 -> 277 ;
278 [label=<Whole.weight &le; 0.453<br/>gini = 0.714<br/>samples = 148<br/>value = [0, 2, 4, 1, 0, 1, 0, 0, 0, 0, 0, 0, 0, 0<br/>0, 0, 0, 0, 0, 0, 0, 0, 0, 3, 20, 66, 35, 16]<br/>class = 27>, fillcolor="#e5396146"] ;
277 -> 278 ;
279 [label=<Length &le; 0.392<br/>gini = 0.731<br/>samples = 140<br/>value = [0, 2, 4, 1, 0, 1, 0, 0, 0, 0, 0, 0, 0, 0<br/>0, 0, 0, 0, 0, 0, 0, 0, 0, 3, 20, 58, 35, 16]<br/>class = 27>, fillcolor="#e5396138"] ;
278 -> 279 ;
280 [label=<gini = 0.444<br/>samples = 3<br/>value = [0, 0, 0, 0, 0, 0, 0, 0, 0, 0, 0, 0, 0, 0<br/>0, 0, 0, 0, 0, 0, 0, 0, 0, 1, 2, 0, 0, 0]<br/>class = 2>, fillcolor="#e539867f"] ;
279 -> 280 ;
281 [label=<gini = 0.723<br/>samples = 137<br/>value = [0, 2, 4, 1, 0, 1, 0, 0, 0, 0, 0, 0, 0, 0<br/>0, 0, 0, 0, 0, 0, 0, 0, 0, 2, 18, 58, 35, 16]<br/>class = 27>, fillcolor="#e5396139"] ;
279 -> 281 ;
282 [label=<gini = 0.0<br/>samples = 8<br/>value = [0, 0, 0, 0, 0, 0, 0, 0, 0, 0, 0, 0, 0, 0<br/>0, 0, 0, 0, 0, 0, 0, 0, 0, 0, 0, 8, 0, 0]<br/>class = 27>, fillcolor="#e53961ff"] ;
278 -> 282 ;
283 [label=<Diameter &le; 0.327<br/>gini = 0.593<br/>samples = 9<br/>value = [0, 0, 0, 0, 0, 0, 0, 0, 0, 0, 0, 0, 0, 0<br/>0, 0, 0, 0, 0, 0, 0, 0, 0, 0, 4, 1, 4, 0]<br/>class = 2>, fillcolor="#e5398600"] ;
277 -> 283 ;
284 [label=<gini = 0.0<br/>samples = 3<br/>value = [0, 0, 0, 0, 0, 0, 0, 0, 0, 0, 0, 0, 0, 0<br/>0, 0, 0, 0, 0, 0, 0, 0, 0, 0, 0, 0, 3, 0]<br/>class = 25>, fillcolor="#e5393cff"] ;
283 -> 284 ;
285 [label=<Shucked.weight &le; 0.327<br/>gini = 0.5<br/>samples = 6<br/>value = [0, 0, 0, 0, 0, 0, 0, 0, 0, 0, 0, 0, 0, 0<br/>0, 0, 0, 0, 0, 0, 0, 0, 0, 0, 4, 1, 1, 0]<br/>class = 2>, fillcolor="#e5398699"] ;
283 -> 285 ;
286 [label=<gini = 0.32<br/>samples = 5<br/>value = [0, 0, 0, 0, 0, 0, 0, 0, 0, 0, 0, 0, 0, 0<br/>0, 0, 0, 0, 0, 0, 0, 0, 0, 0, 4, 1, 0, 0]<br/>class = 2>, fillcolor="#e53986bf"] ;
285 -> 286 ;
287 [label=<gini = 0.0<br/>samples = 1<br/>value = [0, 0, 0, 0, 0, 0, 0, 0, 0, 0, 0, 0, 0, 0<br/>0, 0, 0, 0, 0, 0, 0, 0, 0, 0, 0, 0, 1, 0]<br/>class = 25>, fillcolor="#e5393cff"] ;
285 -> 287 ;
288 [label=<Whole.weight &le; 0.399<br/>gini = 0.836<br/>samples = 16<br/>value = [0, 0, 1, 1, 1, 1, 1, 0, 0, 0, 0, 0, 0, 0<br/>0, 0, 0, 0, 0, 0, 0, 0, 0, 0, 4, 2, 1, 4]<br/>class = 2>, fillcolor="#e5398600"] ;
276 -> 288 ;
289 [label=<Length &le; 0.415<br/>gini = 0.444<br/>samples = 3<br/>value = [0, 0, 1, 0, 0, 0, 0, 0, 0, 0, 0, 0, 0, 0<br/>0, 0, 0, 0, 0, 0, 0, 0, 0, 0, 0, 0, 0, 2]<br/>class = 24>, fillcolor="#e55b397f"] ;
288 -> 289 ;
290 [label=<gini = 0.0<br/>samples = 1<br/>value = [0, 0, 1, 0, 0, 0, 0, 0, 0, 0, 0, 0, 0, 0<br/>0, 0, 0, 0, 0, 0, 0, 0, 0, 0, 0, 0, 0, 0]<br/>class = 9>, fillcolor="#e5c839ff"] ;
289 -> 290 ;
291 [label=<gini = 0.0<br/>samples = 2<br/>value = [0, 0, 0, 0, 0, 0, 0, 0, 0, 0, 0, 0, 0, 0<br/>0, 0, 0, 0, 0, 0, 0, 0, 0, 0, 0, 0, 0, 2]<br/>class = 24>, fillcolor="#e55b39ff"] ;
289 -> 291 ;
292 [label=<Height &le; 0.138<br/>gini = 0.828<br/>samples = 13<br/>value = [0, 0, 0, 1, 1, 1, 1, 0, 0, 0, 0, 0, 0, 0<br/>0, 0, 0, 0, 0, 0, 0, 0, 0, 0, 4, 2, 1, 2]<br/>class = 2>, fillcolor="#e539862e"] ;
288 -> 292 ;
293 [label=<Length &le; 0.438<br/>gini = 0.716<br/>samples = 9<br/>value = [0, 0, 0, 1, 0, 1, 0, 0, 0, 0, 0, 0, 0, 0<br/>0, 0, 0, 0, 0, 0, 0, 0, 0, 0, 4, 2, 0, 1]<br/>class = 2>, fillcolor="#e5398649"] ;
292 -> 293 ;
294 [label=<gini = 0.5<br/>samples = 2<br/>value = [0, 0, 0, 1, 0, 0, 0, 0, 0, 0, 0, 0, 0, 0<br/>0, 0, 0, 0, 0, 0, 0, 0, 0, 0, 0, 0, 0, 1]<br/>class = 10>, fillcolor="#dce53900"] ;
293 -> 294 ;
295 [label=<gini = 0.571<br/>samples = 7<br/>value = [0, 0, 0, 0, 0, 1, 0, 0, 0, 0, 0, 0, 0, 0<br/>0, 0, 0, 0, 0, 0, 0, 0, 0, 0, 4, 2, 0, 0]<br/>class = 2>, fillcolor="#e5398666"] ;
293 -> 295 ;
296 [label=<Diameter &le; 0.35<br/>gini = 0.75<br/>samples = 4<br/>value = [0, 0, 0, 0, 1, 0, 1, 0, 0, 0, 0, 0, 0, 0<br/>0, 0, 0, 0, 0, 0, 0, 0, 0, 0, 0, 0, 1, 1]<br/>class = 8>, fillcolor="#b7e53900"] ;
292 -> 296 ;
297 [label=<gini = 0.5<br/>samples = 2<br/>value = [0, 0, 0, 0, 0, 0, 1, 0, 0, 0, 0, 0, 0, 0<br/>0, 0, 0, 0, 0, 0, 0, 0, 0, 0, 0, 0, 0, 1]<br/>class = 16>, fillcolor="#6de53900"] ;
296 -> 297 ;
298 [label=<gini = 0.5<br/>samples = 2<br/>value = [0, 0, 0, 0, 1, 0, 0, 0, 0, 0, 0, 0, 0, 0<br/>0, 0, 0, 0, 0, 0, 0, 0, 0, 0, 0, 0, 1, 0]<br/>class = 8>, fillcolor="#b7e53900"] ;
296 -> 298 ;
299 [label=<Shucked.weight &le; 0.17<br/>gini = 0.753<br/>samples = 185<br/>value = [0, 12, 3, 6, 2, 0, 1, 2, 0, 1, 0, 0, 0, 0<br/>0, 0, 0, 0, 0, 0, 0, 0, 0, 0, 10, 51, 69, 28]<br/>class = 25>, fillcolor="#e5393c22"] ;
249 -> 299 ;
300 [label=<Sex &le; 1.5<br/>gini = 0.84<br/>samples = 46<br/>value = [0, 7, 3, 4, 2, 0, 0, 1, 0, 1, 0, 0, 0, 0<br/>0, 0, 0, 0, 0, 0, 0, 0, 0, 0, 1, 10, 11, 6]<br/>class = 25>, fillcolor="#e5393c07"] ;
299 -> 300 ;
301 [label=<Shucked.weight &le; 0.152<br/>gini = 0.782<br/>samples = 29<br/>value = [0, 2, 1, 1, 2, 0, 0, 1, 0, 0, 0, 0, 0, 0<br/>0, 0, 0, 0, 0, 0, 0, 0, 0, 0, 1, 9, 9, 3]<br/>class = 27>, fillcolor="#e5396100"] ;
300 -> 301 ;
302 [label=<Shucked.weight &le; 0.139<br/>gini = 0.694<br/>samples = 14<br/>value = [0, 0, 1, 0, 2, 0, 0, 0, 0, 0, 0, 0, 0, 0<br/>0, 0, 0, 0, 0, 0, 0, 0, 0, 0, 1, 1, 7, 2]<br/>class = 25>, fillcolor="#e5393c6a"] ;
301 -> 302 ;
303 [label=<Viscera.weight &le; 0.087<br/>gini = 0.812<br/>samples = 8<br/>value = [0, 0, 1, 0, 2, 0, 0, 0, 0, 0, 0, 0, 0, 0<br/>0, 0, 0, 0, 0, 0, 0, 0, 0, 0, 1, 1, 1, 2]<br/>class = 8>, fillcolor="#b7e53900"] ;
302 -> 303 ;
304 [label=<gini = 0.778<br/>samples = 6<br/>value = [0, 0, 1, 0, 0, 0, 0, 0, 0, 0, 0, 0, 0, 0<br/>0, 0, 0, 0, 0, 0, 0, 0, 0, 0, 1, 1, 1, 2]<br/>class = 24>, fillcolor="#e55b3933"] ;
303 -> 304 ;
305 [label=<gini = 0.0<br/>samples = 2<br/>value = [0, 0, 0, 0, 2, 0, 0, 0, 0, 0, 0, 0, 0, 0<br/>0, 0, 0, 0, 0, 0, 0, 0, 0, 0, 0, 0, 0, 0]<br/>class = 8>, fillcolor="#b7e539ff"] ;
303 -> 305 ;
306 [label=<gini = 0.0<br/>samples = 6<br/>value = [0, 0, 0, 0, 0, 0, 0, 0, 0, 0, 0, 0, 0, 0<br/>0, 0, 0, 0, 0, 0, 0, 0, 0, 0, 0, 0, 6, 0]<br/>class = 25>, fillcolor="#e5393cff"] ;
302 -> 306 ;
307 [label=<Viscera.weight &le; 0.078<br/>gini = 0.667<br/>samples = 15<br/>value = [0, 2, 0, 1, 0, 0, 0, 1, 0, 0, 0, 0, 0, 0<br/>0, 0, 0, 0, 0, 0, 0, 0, 0, 0, 0, 8, 2, 1]<br/>class = 27>, fillcolor="#e5396176"] ;
301 -> 307 ;
308 [label=<Diameter &le; 0.343<br/>gini = 0.735<br/>samples = 7<br/>value = [0, 2, 0, 1, 0, 0, 0, 0, 0, 0, 0, 0, 0, 0<br/>0, 0, 0, 0, 0, 0, 0, 0, 0, 0, 0, 2, 2, 0]<br/>class = 7>, fillcolor="#e5a33900"] ;
307 -> 308 ;
309 [label=<gini = 0.625<br/>samples = 4<br/>value = [0, 2, 0, 1, 0, 0, 0, 0, 0, 0, 0, 0, 0, 0<br/>0, 0, 0, 0, 0, 0, 0, 0, 0, 0, 0, 1, 0, 0]<br/>class = 7>, fillcolor="#e5a33955"] ;
308 -> 309 ;
310 [label=<gini = 0.444<br/>samples = 3<br/>value = [0, 0, 0, 0, 0, 0, 0, 0, 0, 0, 0, 0, 0, 0<br/>0, 0, 0, 0, 0, 0, 0, 0, 0, 0, 0, 1, 2, 0]<br/>class = 25>, fillcolor="#e5393c7f"] ;
308 -> 310 ;
311 [label=<Shell.weight &le; 0.139<br/>gini = 0.406<br/>samples = 8<br/>value = [0, 0, 0, 0, 0, 0, 0, 1, 0, 0, 0, 0, 0, 0<br/>0, 0, 0, 0, 0, 0, 0, 0, 0, 0, 0, 6, 0, 1]<br/>class = 27>, fillcolor="#e53961b6"] ;
307 -> 311 ;
312 [label=<gini = 0.245<br/>samples = 7<br/>value = [0, 0, 0, 0, 0, 0, 0, 0, 0, 0, 0, 0, 0, 0<br/>0, 0, 0, 0, 0, 0, 0, 0, 0, 0, 0, 6, 0, 1]<br/>class = 27>, fillcolor="#e53961d4"] ;
311 -> 312 ;
313 [label=<gini = 0.0<br/>samples = 1<br/>value = [0, 0, 0, 0, 0, 0, 0, 1, 0, 0, 0, 0, 0, 0<br/>0, 0, 0, 0, 0, 0, 0, 0, 0, 0, 0, 0, 0, 0]<br/>class = 19>, fillcolor="#47e539ff"] ;
311 -> 313 ;
314 [label=<Length &le; 0.452<br/>gini = 0.817<br/>samples = 17<br/>value = [0, 5, 2, 3, 0, 0, 0, 0, 0, 1, 0, 0, 0, 0<br/>0, 0, 0, 0, 0, 0, 0, 0, 0, 0, 0, 1, 2, 3]<br/>class = 7>, fillcolor="#e5a33924"] ;
300 -> 314 ;
315 [label=<Diameter &le; 0.338<br/>gini = 0.796<br/>samples = 14<br/>value = [0, 5, 2, 2, 0, 0, 0, 0, 0, 1, 0, 0, 0, 0<br/>0, 0, 0, 0, 0, 0, 0, 0, 0, 0, 0, 1, 2, 1]<br/>class = 7>, fillcolor="#e5a33940"] ;
314 -> 315 ;
316 [label=<Length &le; 0.42<br/>gini = 0.812<br/>samples = 8<br/>value = [0, 1, 0, 2, 0, 0, 0, 0, 0, 1, 0, 0, 0, 0<br/>0, 0, 0, 0, 0, 0, 0, 0, 0, 0, 0, 1, 2, 1]<br/>class = 10>, fillcolor="#dce53900"] ;
315 -> 316 ;
317 [label=<gini = 0.444<br/>samples = 3<br/>value = [0, 1, 0, 2, 0, 0, 0, 0, 0, 0, 0, 0, 0, 0<br/>0, 0, 0, 0, 0, 0, 0, 0, 0, 0, 0, 0, 0, 0]<br/>class = 10>, fillcolor="#dce5397f"] ;
316 -> 317 ;
318 [label=<gini = 0.72<br/>samples = 5<br/>value = [0, 0, 0, 0, 0, 0, 0, 0, 0, 1, 0, 0, 0, 0<br/>0, 0, 0, 0, 0, 0, 0, 0, 0, 0, 0, 1, 2, 1]<br/>class = 25>, fillcolor="#e5393c40"] ;
316 -> 318 ;
319 [label=<Height &le; 0.112<br/>gini = 0.444<br/>samples = 6<br/>value = [0, 4, 2, 0, 0, 0, 0, 0, 0, 0, 0, 0, 0, 0<br/>0, 0, 0, 0, 0, 0, 0, 0, 0, 0, 0, 0, 0, 0]<br/>class = 7>, fillcolor="#e5a3397f"] ;
315 -> 319 ;
320 [label=<gini = 0.0<br/>samples = 3<br/>value = [0, 3, 0, 0, 0, 0, 0, 0, 0, 0, 0, 0, 0, 0<br/>0, 0, 0, 0, 0, 0, 0, 0, 0, 0, 0, 0, 0, 0]<br/>class = 7>, fillcolor="#e5a339ff"] ;
319 -> 320 ;
321 [label=<gini = 0.444<br/>samples = 3<br/>value = [0, 1, 2, 0, 0, 0, 0, 0, 0, 0, 0, 0, 0, 0<br/>0, 0, 0, 0, 0, 0, 0, 0, 0, 0, 0, 0, 0, 0]<br/>class = 9>, fillcolor="#e5c8397f"] ;
319 -> 321 ;
322 [label=<Shucked.weight &le; 0.168<br/>gini = 0.444<br/>samples = 3<br/>value = [0, 0, 0, 1, 0, 0, 0, 0, 0, 0, 0, 0, 0, 0<br/>0, 0, 0, 0, 0, 0, 0, 0, 0, 0, 0, 0, 0, 2]<br/>class = 24>, fillcolor="#e55b397f"] ;
314 -> 322 ;
323 [label=<gini = 0.0<br/>samples = 2<br/>value = [0, 0, 0, 0, 0, 0, 0, 0, 0, 0, 0, 0, 0, 0<br/>0, 0, 0, 0, 0, 0, 0, 0, 0, 0, 0, 0, 0, 2]<br/>class = 24>, fillcolor="#e55b39ff"] ;
322 -> 323 ;
324 [label=<gini = 0.0<br/>samples = 1<br/>value = [0, 0, 0, 1, 0, 0, 0, 0, 0, 0, 0, 0, 0, 0<br/>0, 0, 0, 0, 0, 0, 0, 0, 0, 0, 0, 0, 0, 0]<br/>class = 10>, fillcolor="#dce539ff"] ;
322 -> 324 ;
325 [label=<Length &le; 0.4<br/>gini = 0.708<br/>samples = 139<br/>value = [0, 5, 0, 2, 0, 0, 1, 1, 0, 0, 0, 0, 0, 0<br/>0, 0, 0, 0, 0, 0, 0, 0, 0, 0, 9, 41, 58, 22]<br/>class = 25>, fillcolor="#e5393c2c"] ;
299 -> 325 ;
326 [label=<gini = 0.0<br/>samples = 3<br/>value = [0, 0, 0, 0, 0, 0, 0, 0, 0, 0, 0, 0, 0, 0<br/>0, 0, 0, 0, 0, 0, 0, 0, 0, 0, 0, 3, 0, 0]<br/>class = 27>, fillcolor="#e53961ff"] ;
325 -> 326 ;
327 [label=<Whole.weight &le; 0.494<br/>gini = 0.708<br/>samples = 136<br/>value = [0, 5, 0, 2, 0, 0, 1, 1, 0, 0, 0, 0, 0, 0<br/>0, 0, 0, 0, 0, 0, 0, 0, 0, 0, 9, 38, 58, 22]<br/>class = 25>, fillcolor="#e5393c34"] ;
325 -> 327 ;
328 [label=<Diameter &le; 0.333<br/>gini = 0.691<br/>samples = 77<br/>value = [0, 2, 0, 2, 0, 0, 0, 1, 0, 0, 0, 0, 0, 0<br/>0, 0, 0, 0, 0, 0, 0, 0, 0, 0, 4, 15, 36, 17]<br/>class = 25>, fillcolor="#e5393c51"] ;
327 -> 328 ;
329 [label=<gini = 0.0<br/>samples = 2<br/>value = [0, 0, 0, 0, 0, 0, 0, 0, 0, 0, 0, 0, 0, 0<br/>0, 0, 0, 0, 0, 0, 0, 0, 0, 0, 0, 0, 0, 2]<br/>class = 24>, fillcolor="#e55b39ff"] ;
328 -> 329 ;
330 [label=<Height &le; 0.095<br/>gini = 0.685<br/>samples = 75<br/>value = [0, 2, 0, 2, 0, 0, 0, 1, 0, 0, 0, 0, 0, 0<br/>0, 0, 0, 0, 0, 0, 0, 0, 0, 0, 4, 15, 36, 15]<br/>class = 25>, fillcolor="#e5393c59"] ;
328 -> 330 ;
331 [label=<gini = 0.0<br/>samples = 2<br/>value = [0, 0, 0, 0, 0, 0, 0, 0, 0, 0, 0, 0, 0, 0<br/>0, 0, 0, 0, 0, 0, 0, 0, 0, 0, 0, 0, 0, 2]<br/>class = 24>, fillcolor="#e55b39ff"] ;
330 -> 331 ;
332 [label=<gini = 0.678<br/>samples = 73<br/>value = [0, 2, 0, 2, 0, 0, 0, 1, 0, 0, 0, 0, 0, 0<br/>0, 0, 0, 0, 0, 0, 0, 0, 0, 0, 4, 15, 36, 13]<br/>class = 25>, fillcolor="#e5393c5c"] ;
330 -> 332 ;
333 [label=<Shucked.weight &le; 0.237<br/>gini = 0.692<br/>samples = 59<br/>value = [0, 3, 0, 0, 0, 0, 1, 0, 0, 0, 0, 0, 0, 0<br/>0, 0, 0, 0, 0, 0, 0, 0, 0, 0, 5, 23, 22, 5]<br/>class = 27>, fillcolor="#e5396107"] ;
327 -> 333 ;
334 [label=<Shucked.weight &le; 0.216<br/>gini = 0.551<br/>samples = 14<br/>value = [0, 1, 0, 0, 0, 0, 1, 0, 0, 0, 0, 0, 0, 0<br/>0, 0, 0, 0, 0, 0, 0, 0, 0, 0, 1, 9, 0, 2]<br/>class = 27>, fillcolor="#e5396195"] ;
333 -> 334 ;
335 [label=<gini = 0.625<br/>samples = 4<br/>value = [0, 1, 0, 0, 0, 0, 1, 0, 0, 0, 0, 0, 0, 0<br/>0, 0, 0, 0, 0, 0, 0, 0, 0, 0, 0, 0, 0, 2]<br/>class = 24>, fillcolor="#e55b3955"] ;
334 -> 335 ;
336 [label=<gini = 0.18<br/>samples = 10<br/>value = [0, 0, 0, 0, 0, 0, 0, 0, 0, 0, 0, 0, 0, 0<br/>0, 0, 0, 0, 0, 0, 0, 0, 0, 0, 1, 9, 0, 0]<br/>class = 27>, fillcolor="#e53961e3"] ;
334 -> 336 ;
337 [label=<Shucked.weight &le; 0.259<br/>gini = 0.65<br/>samples = 45<br/>value = [0, 2, 0, 0, 0, 0, 0, 0, 0, 0, 0, 0, 0, 0<br/>0, 0, 0, 0, 0, 0, 0, 0, 0, 0, 4, 14, 22, 3]<br/>class = 25>, fillcolor="#e5393c42"] ;
333 -> 337 ;
338 [label=<gini = 0.391<br/>samples = 13<br/>value = [0, 1, 0, 0, 0, 0, 0, 0, 0, 0, 0, 0, 0, 0<br/>0, 0, 0, 0, 0, 0, 0, 0, 0, 0, 1, 1, 10, 0]<br/>class = 25>, fillcolor="#e5393cbf"] ;
337 -> 338 ;
339 [label=<gini = 0.676<br/>samples = 32<br/>value = [0, 1, 0, 0, 0, 0, 0, 0, 0, 0, 0, 0, 0, 0<br/>0, 0, 0, 0, 0, 0, 0, 0, 0, 0, 3, 13, 12, 3]<br/>class = 27>, fillcolor="#e539610d"] ;
337 -> 339 ;
340 [label=<Shell.weight &le; 0.253<br/>gini = 0.872<br/>samples = 2992<br/>value = [0, 571, 455, 247, 191, 123, 100, 63, 58, 41, 32<br/>0, 26, 14, 6, 9, 2, 1, 1, 2, 1, 0, 0, 0, 18<br/>85, 366, 580]<br/>class = 24>, fillcolor="#e55b3901"] ;
0 -> 340 [labeldistance=2.5, labelangle=-45, headlabel="False"] ;
341 [label=<Shucked.weight &le; 0.432<br/>gini = 0.834<br/>samples = 1150<br/>value = [0, 172, 104, 71, 47, 35, 27, 10, 8, 6, 3, 0, 2<br/>2, 1, 1, 0, 0, 0, 0, 0, 0, 0, 0, 14, 73, 280<br/>294]<br/>class = 24>, fillcolor="#e55b3904"] ;
340 -> 341 ;
342 [label=<Shell.weight &le; 0.194<br/>gini = 0.844<br/>samples = 1030<br/>value = [0, 154, 97, 69, 47, 35, 27, 10, 8, 6, 3, 0, 2<br/>2, 1, 1, 0, 0, 0, 0, 0, 0, 0, 0, 14, 68, 250<br/>236]<br/>class = 25>, fillcolor="#e5393c04"] ;
341 -> 342 ;
343 [label=<Shucked.weight &le; 0.204<br/>gini = 0.824<br/>samples = 515<br/>value = [0, 64, 43, 25, 16, 12, 11, 3, 1, 2, 1, 0, 0<br/>1, 0, 0, 0, 0, 0, 0, 0, 0, 0, 0, 10, 60, 148<br/>118]<br/>class = 25>, fillcolor="#e5393c13"] ;
342 -> 343 ;
344 [label=<Whole.weight &le; 0.463<br/>gini = 0.862<br/>samples = 125<br/>value = [0, 18, 22, 8, 8, 8, 1, 2, 1, 2, 1, 0, 0, 0<br/>0, 0, 0, 0, 0, 0, 0, 0, 0, 0, 1, 8, 17, 28]<br/>class = 24>, fillcolor="#e55b390f"] ;
343 -> 344 ;
345 [label=<Shucked.weight &le; 0.181<br/>gini = 0.817<br/>samples = 53<br/>value = [0, 3, 6, 3, 3, 3, 0, 1, 0, 0, 1, 0, 0, 0<br/>0, 0, 0, 0, 0, 0, 0, 0, 0, 0, 0, 6, 9, 18]<br/>class = 24>, fillcolor="#e55b3934"] ;
344 -> 345 ;
346 [label=<Diameter &le; 0.363<br/>gini = 0.845<br/>samples = 43<br/>value = [0, 3, 4, 2, 3, 3, 0, 1, 0, 0, 1, 0, 0, 0<br/>0, 0, 0, 0, 0, 0, 0, 0, 0, 0, 0, 6, 9, 11]<br/>class = 24>, fillcolor="#e55b390f"] ;
345 -> 346 ;
347 [label=<Diameter &le; 0.352<br/>gini = 0.854<br/>samples = 29<br/>value = [0, 2, 4, 2, 3, 2, 0, 1, 0, 0, 1, 0, 0, 0<br/>0, 0, 0, 0, 0, 0, 0, 0, 0, 0, 0, 4, 2, 8]<br/>class = 24>, fillcolor="#e55b3929"] ;
346 -> 347 ;
348 [label=<Shucked.weight &le; 0.173<br/>gini = 0.864<br/>samples = 19<br/>value = [0, 1, 3, 1, 3, 2, 0, 1, 0, 0, 0, 0, 0, 0<br/>0, 0, 0, 0, 0, 0, 0, 0, 0, 0, 0, 4, 2, 2]<br/>class = 27>, fillcolor="#e5396110"] ;
347 -> 348 ;
349 [label=<gini = 0.867<br/>samples = 16<br/>value = [0, 1, 3, 1, 3, 2, 0, 1, 0, 0, 0, 0, 0, 0<br/>0, 0, 0, 0, 0, 0, 0, 0, 0, 0, 0, 1, 2, 2]<br/>class = 9>, fillcolor="#e5c83900"] ;
348 -> 349 ;
350 [label=<gini = 0.0<br/>samples = 3<br/>value = [0, 0, 0, 0, 0, 0, 0, 0, 0, 0, 0, 0, 0, 0<br/>0, 0, 0, 0, 0, 0, 0, 0, 0, 0, 0, 3, 0, 0]<br/>class = 27>, fillcolor="#e53961ff"] ;
348 -> 350 ;
351 [label=<Shucked.weight &le; 0.131<br/>gini = 0.6<br/>samples = 10<br/>value = [0, 1, 1, 1, 0, 0, 0, 0, 0, 0, 1, 0, 0, 0<br/>0, 0, 0, 0, 0, 0, 0, 0, 0, 0, 0, 0, 0, 6]<br/>class = 24>, fillcolor="#e55b398e"] ;
347 -> 351 ;
352 [label=<gini = 0.0<br/>samples = 1<br/>value = [0, 0, 0, 0, 0, 0, 0, 0, 0, 0, 1, 0, 0, 0<br/>0, 0, 0, 0, 0, 0, 0, 0, 0, 0, 0, 0, 0, 0]<br/>class = 12>, fillcolor="#39e598ff"] ;
351 -> 352 ;
353 [label=<gini = 0.519<br/>samples = 9<br/>value = [0, 1, 1, 1, 0, 0, 0, 0, 0, 0, 0, 0, 0, 0<br/>0, 0, 0, 0, 0, 0, 0, 0, 0, 0, 0, 0, 0, 6]<br/>class = 24>, fillcolor="#e55b399f"] ;
351 -> 353 ;
354 [label=<Shell.weight &le; 0.162<br/>gini = 0.673<br/>samples = 14<br/>value = [0, 1, 0, 0, 0, 1, 0, 0, 0, 0, 0, 0, 0, 0<br/>0, 0, 0, 0, 0, 0, 0, 0, 0, 0, 0, 2, 7, 3]<br/>class = 25>, fillcolor="#e5393c5d"] ;
346 -> 354 ;
355 [label=<Sex &le; 0.5<br/>gini = 0.583<br/>samples = 12<br/>value = [0, 1, 0, 0, 0, 0, 0, 0, 0, 0, 0, 0, 0, 0<br/>0, 0, 0, 0, 0, 0, 0, 0, 0, 0, 0, 1, 7, 3]<br/>class = 25>, fillcolor="#e5393c71"] ;
354 -> 355 ;
356 [label=<gini = 0.5<br/>samples = 2<br/>value = [0, 0, 0, 0, 0, 0, 0, 0, 0, 0, 0, 0, 0, 0<br/>0, 0, 0, 0, 0, 0, 0, 0, 0, 0, 0, 1, 0, 1]<br/>class = 27>, fillcolor="#e5396100"] ;
355 -> 356 ;
357 [label=<gini = 0.46<br/>samples = 10<br/>value = [0, 1, 0, 0, 0, 0, 0, 0, 0, 0, 0, 0, 0, 0<br/>0, 0, 0, 0, 0, 0, 0, 0, 0, 0, 0, 0, 7, 2]<br/>class = 25>, fillcolor="#e5393c9f"] ;
355 -> 357 ;
358 [label=<Sex &le; 0.5<br/>gini = 0.5<br/>samples = 2<br/>value = [0, 0, 0, 0, 0, 1, 0, 0, 0, 0, 0, 0, 0, 0<br/>0, 0, 0, 0, 0, 0, 0, 0, 0, 0, 0, 1, 0, 0]<br/>class = 20>, fillcolor="#92e53900"] ;
354 -> 358 ;
359 [label=<gini = 0.0<br/>samples = 1<br/>value = [0, 0, 0, 0, 0, 1, 0, 0, 0, 0, 0, 0, 0, 0<br/>0, 0, 0, 0, 0, 0, 0, 0, 0, 0, 0, 0, 0, 0]<br/>class = 20>, fillcolor="#92e539ff"] ;
358 -> 359 ;
360 [label=<gini = 0.0<br/>samples = 1<br/>value = [0, 0, 0, 0, 0, 0, 0, 0, 0, 0, 0, 0, 0, 0<br/>0, 0, 0, 0, 0, 0, 0, 0, 0, 0, 0, 1, 0, 0]<br/>class = 27>, fillcolor="#e53961ff"] ;
358 -> 360 ;
361 [label=<Viscera.weight &le; 0.093<br/>gini = 0.46<br/>samples = 10<br/>value = [0, 0, 2, 1, 0, 0, 0, 0, 0, 0, 0, 0, 0, 0<br/>0, 0, 0, 0, 0, 0, 0, 0, 0, 0, 0, 0, 0, 7]<br/>class = 24>, fillcolor="#e55b399f"] ;
345 -> 361 ;
362 [label=<Height &le; 0.123<br/>gini = 0.64<br/>samples = 5<br/>value = [0, 0, 2, 1, 0, 0, 0, 0, 0, 0, 0, 0, 0, 0<br/>0, 0, 0, 0, 0, 0, 0, 0, 0, 0, 0, 0, 0, 2]<br/>class = 9>, fillcolor="#e5c83900"] ;
361 -> 362 ;
363 [label=<gini = 0.0<br/>samples = 2<br/>value = [0, 0, 0, 0, 0, 0, 0, 0, 0, 0, 0, 0, 0, 0<br/>0, 0, 0, 0, 0, 0, 0, 0, 0, 0, 0, 0, 0, 2]<br/>class = 24>, fillcolor="#e55b39ff"] ;
362 -> 363 ;
364 [label=<Shucked.weight &le; 0.19<br/>gini = 0.444<br/>samples = 3<br/>value = [0, 0, 2, 1, 0, 0, 0, 0, 0, 0, 0, 0, 0, 0<br/>0, 0, 0, 0, 0, 0, 0, 0, 0, 0, 0, 0, 0, 0]<br/>class = 9>, fillcolor="#e5c8397f"] ;
362 -> 364 ;
365 [label=<gini = 0.0<br/>samples = 2<br/>value = [0, 0, 2, 0, 0, 0, 0, 0, 0, 0, 0, 0, 0, 0<br/>0, 0, 0, 0, 0, 0, 0, 0, 0, 0, 0, 0, 0, 0]<br/>class = 9>, fillcolor="#e5c839ff"] ;
364 -> 365 ;
366 [label=<gini = 0.0<br/>samples = 1<br/>value = [0, 0, 0, 1, 0, 0, 0, 0, 0, 0, 0, 0, 0, 0<br/>0, 0, 0, 0, 0, 0, 0, 0, 0, 0, 0, 0, 0, 0]<br/>class = 10>, fillcolor="#dce539ff"] ;
364 -> 366 ;
367 [label=<gini = 0.0<br/>samples = 5<br/>value = [0, 0, 0, 0, 0, 0, 0, 0, 0, 0, 0, 0, 0, 0<br/>0, 0, 0, 0, 0, 0, 0, 0, 0, 0, 0, 0, 0, 5]<br/>class = 24>, fillcolor="#e55b39ff"] ;
361 -> 367 ;
368 [label=<Whole.weight &le; 0.477<br/>gini = 0.859<br/>samples = 72<br/>value = [0, 15, 16, 5, 5, 5, 1, 1, 1, 2, 0, 0, 0, 0<br/>0, 0, 0, 0, 0, 0, 0, 0, 0, 0, 1, 2, 8, 10]<br/>class = 9>, fillcolor="#e5c83904"] ;
344 -> 368 ;
369 [label=<Viscera.weight &le; 0.106<br/>gini = 0.703<br/>samples = 16<br/>value = [0, 8, 1, 1, 1, 0, 0, 0, 0, 0, 0, 0, 0, 0<br/>0, 0, 0, 0, 0, 0, 0, 0, 0, 0, 1, 0, 2, 2]<br/>class = 7>, fillcolor="#e5a3396d"] ;
368 -> 369 ;
370 [label=<Length &le; 0.483<br/>gini = 0.826<br/>samples = 11<br/>value = [0, 3, 1, 1, 1, 0, 0, 0, 0, 0, 0, 0, 0, 0<br/>0, 0, 0, 0, 0, 0, 0, 0, 0, 0, 1, 0, 2, 2]<br/>class = 7>, fillcolor="#e5a3391c"] ;
369 -> 370 ;
371 [label=<Whole.weight &le; 0.466<br/>gini = 0.79<br/>samples = 9<br/>value = [0, 3, 1, 1, 1, 0, 0, 0, 0, 0, 0, 0, 0, 0<br/>0, 0, 0, 0, 0, 0, 0, 0, 0, 0, 1, 0, 0, 2]<br/>class = 7>, fillcolor="#e5a33924"] ;
370 -> 371 ;
372 [label=<gini = 0.5<br/>samples = 2<br/>value = [0, 0, 1, 0, 0, 0, 0, 0, 0, 0, 0, 0, 0, 0<br/>0, 0, 0, 0, 0, 0, 0, 0, 0, 0, 1, 0, 0, 0]<br/>class = 9>, fillcolor="#e5c83900"] ;
371 -> 372 ;
373 [label=<gini = 0.694<br/>samples = 7<br/>value = [0, 3, 0, 1, 1, 0, 0, 0, 0, 0, 0, 0, 0, 0<br/>0, 0, 0, 0, 0, 0, 0, 0, 0, 0, 0, 0, 0, 2]<br/>class = 7>, fillcolor="#e5a33933"] ;
371 -> 373 ;
374 [label=<gini = 0.0<br/>samples = 2<br/>value = [0, 0, 0, 0, 0, 0, 0, 0, 0, 0, 0, 0, 0, 0<br/>0, 0, 0, 0, 0, 0, 0, 0, 0, 0, 0, 0, 2, 0]<br/>class = 25>, fillcolor="#e5393cff"] ;
370 -> 374 ;
375 [label=<gini = 0.0<br/>samples = 5<br/>value = [0, 5, 0, 0, 0, 0, 0, 0, 0, 0, 0, 0, 0, 0<br/>0, 0, 0, 0, 0, 0, 0, 0, 0, 0, 0, 0, 0, 0]<br/>class = 7>, fillcolor="#e5a339ff"] ;
369 -> 375 ;
376 [label=<Diameter &le; 0.387<br/>gini = 0.859<br/>samples = 56<br/>value = [0, 7, 15, 4, 4, 5, 1, 1, 1, 2, 0, 0, 0, 0<br/>0, 0, 0, 0, 0, 0, 0, 0, 0, 0, 0, 2, 6, 8]<br/>class = 9>, fillcolor="#e5c83925"] ;
368 -> 376 ;
377 [label=<Height &le; 0.123<br/>gini = 0.862<br/>samples = 52<br/>value = [0, 7, 14, 4, 4, 5, 1, 1, 1, 2, 0, 0, 0, 0<br/>0, 0, 0, 0, 0, 0, 0, 0, 0, 0, 0, 2, 6, 5]<br/>class = 9>, fillcolor="#e5c83928"] ;
376 -> 377 ;
378 [label=<Length &le; 0.468<br/>gini = 0.684<br/>samples = 15<br/>value = [0, 2, 7, 0, 0, 1, 0, 0, 1, 0, 0, 0, 0, 0<br/>0, 0, 0, 0, 0, 0, 0, 0, 0, 0, 0, 0, 4, 0]<br/>class = 9>, fillcolor="#e5c83946"] ;
377 -> 378 ;
379 [label=<gini = 0.571<br/>samples = 7<br/>value = [0, 2, 4, 0, 0, 1, 0, 0, 0, 0, 0, 0, 0, 0<br/>0, 0, 0, 0, 0, 0, 0, 0, 0, 0, 0, 0, 0, 0]<br/>class = 9>, fillcolor="#e5c83966"] ;
378 -> 379 ;
380 [label=<gini = 0.594<br/>samples = 8<br/>value = [0, 0, 3, 0, 0, 0, 0, 0, 1, 0, 0, 0, 0, 0<br/>0, 0, 0, 0, 0, 0, 0, 0, 0, 0, 0, 0, 4, 0]<br/>class = 25>, fillcolor="#e5393c33"] ;
378 -> 380 ;
381 [label=<Viscera.weight &le; 0.115<br/>gini = 0.882<br/>samples = 37<br/>value = [0, 5, 7, 4, 4, 4, 1, 1, 0, 2, 0, 0, 0, 0<br/>0, 0, 0, 0, 0, 0, 0, 0, 0, 0, 0, 2, 2, 5]<br/>class = 9>, fillcolor="#e5c83910"] ;
377 -> 381 ;
382 [label=<gini = 0.778<br/>samples = 12<br/>value = [0, 0, 0, 3, 1, 0, 0, 0, 0, 2, 0, 0, 0, 0<br/>0, 0, 0, 0, 0, 0, 0, 0, 0, 0, 0, 1, 1, 4]<br/>class = 24>, fillcolor="#e55b391c"] ;
381 -> 382 ;
383 [label=<gini = 0.832<br/>samples = 25<br/>value = [0, 5, 7, 1, 3, 4, 1, 1, 0, 0, 0, 0, 0, 0<br/>0, 0, 0, 0, 0, 0, 0, 0, 0, 0, 0, 1, 1, 1]<br/>class = 9>, fillcolor="#e5c8391a"] ;
381 -> 383 ;
384 [label=<Sex &le; 0.5<br/>gini = 0.375<br/>samples = 4<br/>value = [0, 0, 1, 0, 0, 0, 0, 0, 0, 0, 0, 0, 0, 0<br/>0, 0, 0, 0, 0, 0, 0, 0, 0, 0, 0, 0, 0, 3]<br/>class = 24>, fillcolor="#e55b39aa"] ;
376 -> 384 ;
385 [label=<gini = 0.0<br/>samples = 3<br/>value = [0, 0, 0, 0, 0, 0, 0, 0, 0, 0, 0, 0, 0, 0<br/>0, 0, 0, 0, 0, 0, 0, 0, 0, 0, 0, 0, 0, 3]<br/>class = 24>, fillcolor="#e55b39ff"] ;
384 -> 385 ;
386 [label=<gini = 0.0<br/>samples = 1<br/>value = [0, 0, 1, 0, 0, 0, 0, 0, 0, 0, 0, 0, 0, 0<br/>0, 0, 0, 0, 0, 0, 0, 0, 0, 0, 0, 0, 0, 0]<br/>class = 9>, fillcolor="#e5c839ff"] ;
384 -> 386 ;
387 [label=<Viscera.weight &le; 0.148<br/>gini = 0.796<br/>samples = 390<br/>value = [0, 46, 21, 17, 8, 4, 10, 1, 0, 0, 0, 0, 0, 1<br/>0, 0, 0, 0, 0, 0, 0, 0, 0, 0, 9, 52, 131, 90]<br/>class = 25>, fillcolor="#e5393c23"] ;
343 -> 387 ;
388 [label=<Shucked.weight &le; 0.211<br/>gini = 0.76<br/>samples = 288<br/>value = [0, 30, 14, 11, 5, 1, 6, 0, 0, 0, 0, 0, 0, 1<br/>0, 0, 0, 0, 0, 0, 0, 0, 0, 0, 7, 31, 114, 68]<br/>class = 25>, fillcolor="#e5393c35"] ;
387 -> 388 ;
389 [label=<Shucked.weight &le; 0.207<br/>gini = 0.66<br/>samples = 20<br/>value = [0, 9, 0, 0, 1, 0, 2, 0, 0, 0, 0, 0, 0, 0<br/>0, 0, 0, 0, 0, 0, 0, 0, 0, 0, 1, 0, 7, 0]<br/>class = 7>, fillcolor="#e5a33927"] ;
388 -> 389 ;
390 [label=<gini = 0.0<br/>samples = 3<br/>value = [0, 0, 0, 0, 0, 0, 0, 0, 0, 0, 0, 0, 0, 0<br/>0, 0, 0, 0, 0, 0, 0, 0, 0, 0, 0, 0, 3, 0]<br/>class = 25>, fillcolor="#e5393cff"] ;
389 -> 390 ;
391 [label=<Viscera.weight &le; 0.114<br/>gini = 0.644<br/>samples = 17<br/>value = [0, 9, 0, 0, 1, 0, 2, 0, 0, 0, 0, 0, 0, 0<br/>0, 0, 0, 0, 0, 0, 0, 0, 0, 0, 1, 0, 4, 0]<br/>class = 7>, fillcolor="#e5a33962"] ;
389 -> 391 ;
392 [label=<Whole.weight &le; 0.512<br/>gini = 0.7<br/>samples = 10<br/>value = [0, 3, 0, 0, 0, 0, 2, 0, 0, 0, 0, 0, 0, 0<br/>0, 0, 0, 0, 0, 0, 0, 0, 0, 0, 1, 0, 4, 0]<br/>class = 25>, fillcolor="#e5393c24"] ;
391 -> 392 ;
393 [label=<gini = 0.594<br/>samples = 8<br/>value = [0, 3, 0, 0, 0, 0, 0, 0, 0, 0, 0, 0, 0, 0<br/>0, 0, 0, 0, 0, 0, 0, 0, 0, 0, 1, 0, 4, 0]<br/>class = 25>, fillcolor="#e5393c33"] ;
392 -> 393 ;
394 [label=<gini = 0.0<br/>samples = 2<br/>value = [0, 0, 0, 0, 0, 0, 2, 0, 0, 0, 0, 0, 0, 0<br/>0, 0, 0, 0, 0, 0, 0, 0, 0, 0, 0, 0, 0, 0]<br/>class = 16>, fillcolor="#6de539ff"] ;
392 -> 394 ;
395 [label=<Viscera.weight &le; 0.127<br/>gini = 0.245<br/>samples = 7<br/>value = [0, 6, 0, 0, 1, 0, 0, 0, 0, 0, 0, 0, 0, 0<br/>0, 0, 0, 0, 0, 0, 0, 0, 0, 0, 0, 0, 0, 0]<br/>class = 7>, fillcolor="#e5a339d4"] ;
391 -> 395 ;
396 [label=<gini = 0.0<br/>samples = 6<br/>value = [0, 6, 0, 0, 0, 0, 0, 0, 0, 0, 0, 0, 0, 0<br/>0, 0, 0, 0, 0, 0, 0, 0, 0, 0, 0, 0, 0, 0]<br/>class = 7>, fillcolor="#e5a339ff"] ;
395 -> 396 ;
397 [label=<gini = 0.0<br/>samples = 1<br/>value = [0, 0, 0, 0, 1, 0, 0, 0, 0, 0, 0, 0, 0, 0<br/>0, 0, 0, 0, 0, 0, 0, 0, 0, 0, 0, 0, 0, 0]<br/>class = 8>, fillcolor="#b7e539ff"] ;
395 -> 397 ;
398 [label=<Sex &le; 0.5<br/>gini = 0.751<br/>samples = 268<br/>value = [0, 21, 14, 11, 4, 1, 4, 0, 0, 0, 0, 0, 0, 1<br/>0, 0, 0, 0, 0, 0, 0, 0, 0, 0, 6, 31, 107, 68]<br/>class = 25>, fillcolor="#e5393c32"] ;
388 -> 398 ;
399 [label=<Shucked.weight &le; 0.27<br/>gini = 0.857<br/>samples = 51<br/>value = [0, 8, 5, 5, 3, 1, 2, 0, 0, 0, 0, 0, 0, 0<br/>0, 0, 0, 0, 0, 0, 0, 0, 0, 0, 1, 6, 12, 8]<br/>class = 25>, fillcolor="#e5393c18"] ;
398 -> 399 ;
400 [label=<Whole.weight &le; 0.59<br/>gini = 0.866<br/>samples = 36<br/>value = [0, 6, 5, 5, 3, 1, 2, 0, 0, 0, 0, 0, 0, 0<br/>0, 0, 0, 0, 0, 0, 0, 0, 0, 0, 0, 3, 4, 7]<br/>class = 24>, fillcolor="#e55b3909"] ;
399 -> 400 ;
401 [label=<gini = 0.813<br/>samples = 25<br/>value = [0, 6, 1, 2, 3, 0, 0, 0, 0, 0, 0, 0, 0, 0<br/>0, 0, 0, 0, 0, 0, 0, 0, 0, 0, 0, 3, 3, 7]<br/>class = 24>, fillcolor="#e55b390d"] ;
400 -> 401 ;
402 [label=<gini = 0.744<br/>samples = 11<br/>value = [0, 0, 4, 3, 0, 1, 2, 0, 0, 0, 0, 0, 0, 0<br/>0, 0, 0, 0, 0, 0, 0, 0, 0, 0, 0, 0, 1, 0]<br/>class = 9>, fillcolor="#e5c83920"] ;
400 -> 402 ;
403 [label=<Height &le; 0.117<br/>gini = 0.649<br/>samples = 15<br/>value = [0, 2, 0, 0, 0, 0, 0, 0, 0, 0, 0, 0, 0, 0<br/>0, 0, 0, 0, 0, 0, 0, 0, 0, 0, 1, 3, 8, 1]<br/>class = 25>, fillcolor="#e5393c6a"] ;
399 -> 403 ;
404 [label=<gini = 0.444<br/>samples = 3<br/>value = [0, 0, 0, 0, 0, 0, 0, 0, 0, 0, 0, 0, 0, 0<br/>0, 0, 0, 0, 0, 0, 0, 0, 0, 0, 1, 2, 0, 0]<br/>class = 27>, fillcolor="#e539617f"] ;
403 -> 404 ;
405 [label=<gini = 0.514<br/>samples = 12<br/>value = [0, 2, 0, 0, 0, 0, 0, 0, 0, 0, 0, 0, 0, 0<br/>0, 0, 0, 0, 0, 0, 0, 0, 0, 0, 0, 1, 8, 1]<br/>class = 25>, fillcolor="#e5393c99"] ;
403 -> 405 ;
406 [label=<Height &le; 0.117<br/>gini = 0.712<br/>samples = 217<br/>value = [0, 13, 9, 6, 1, 0, 2, 0, 0, 0, 0, 0, 0, 1<br/>0, 0, 0, 0, 0, 0, 0, 0, 0, 0, 5, 25, 95, 60]<br/>class = 25>, fillcolor="#e5393c39"] ;
398 -> 406 ;
407 [label=<Viscera.weight &le; 0.09<br/>gini = 0.539<br/>samples = 35<br/>value = [0, 1, 1, 0, 0, 0, 1, 0, 0, 0, 0, 0, 0, 0<br/>0, 0, 0, 0, 0, 0, 0, 0, 0, 0, 2, 2, 23, 5]<br/>class = 25>, fillcolor="#e5393c99"] ;
406 -> 407 ;
408 [label=<gini = 0.5<br/>samples = 2<br/>value = [0, 1, 0, 0, 0, 0, 0, 0, 0, 0, 0, 0, 0, 0<br/>0, 0, 0, 0, 0, 0, 0, 0, 0, 0, 0, 0, 0, 1]<br/>class = 7>, fillcolor="#e5a33900"] ;
407 -> 408 ;
409 [label=<gini = 0.49<br/>samples = 33<br/>value = [0, 0, 1, 0, 0, 0, 1, 0, 0, 0, 0, 0, 0, 0<br/>0, 0, 0, 0, 0, 0, 0, 0, 0, 0, 2, 2, 23, 4]<br/>class = 25>, fillcolor="#e5393ca7"] ;
407 -> 409 ;
410 [label=<Length &le; 0.498<br/>gini = 0.728<br/>samples = 182<br/>value = [0, 12, 8, 6, 1, 0, 1, 0, 0, 0, 0, 0, 0, 1<br/>0, 0, 0, 0, 0, 0, 0, 0, 0, 0, 3, 23, 72, 55]<br/>class = 25>, fillcolor="#e5393c22"] ;
406 -> 410 ;
411 [label=<gini = 0.733<br/>samples = 74<br/>value = [0, 7, 5, 3, 1, 0, 1, 0, 0, 0, 0, 0, 0, 1<br/>0, 0, 0, 0, 0, 0, 0, 0, 0, 0, 2, 7, 34, 13]<br/>class = 25>, fillcolor="#e5393c58"] ;
410 -> 411 ;
412 [label=<gini = 0.699<br/>samples = 108<br/>value = [0, 5, 3, 3, 0, 0, 0, 0, 0, 0, 0, 0, 0, 0<br/>0, 0, 0, 0, 0, 0, 0, 0, 0, 0, 1, 16, 38, 42]<br/>class = 24>, fillcolor="#e55b390f"] ;
410 -> 412 ;
413 [label=<Shucked.weight &le; 0.301<br/>gini = 0.847<br/>samples = 102<br/>value = [0, 16, 7, 6, 3, 3, 4, 1, 0, 0, 0, 0, 0, 0<br/>0, 0, 0, 0, 0, 0, 0, 0, 0, 0, 2, 21, 17, 22]<br/>class = 24>, fillcolor="#e55b3903"] ;
387 -> 413 ;
414 [label=<Shucked.weight &le; 0.299<br/>gini = 0.838<br/>samples = 49<br/>value = [0, 12, 6, 3, 2, 1, 4, 1, 0, 0, 0, 0, 0, 0<br/>0, 0, 0, 0, 0, 0, 0, 0, 0, 0, 0, 5, 3, 12]<br/>class = 7>, fillcolor="#e5a33900"] ;
413 -> 414 ;
415 [label=<Height &le; 0.153<br/>gini = 0.833<br/>samples = 47<br/>value = [0, 12, 4, 3, 2, 1, 4, 1, 0, 0, 0, 0, 0, 0<br/>0, 0, 0, 0, 0, 0, 0, 0, 0, 0, 0, 5, 3, 12]<br/>class = 7>, fillcolor="#e5a33900"] ;
414 -> 415 ;
416 [label=<Shell.weight &le; 0.191<br/>gini = 0.818<br/>samples = 43<br/>value = [0, 12, 4, 1, 2, 0, 4, 1, 0, 0, 0, 0, 0, 0<br/>0, 0, 0, 0, 0, 0, 0, 0, 0, 0, 0, 5, 3, 11]<br/>class = 7>, fillcolor="#e5a33908"] ;
415 -> 416 ;
417 [label=<gini = 0.823<br/>samples = 41<br/>value = [0, 12, 4, 1, 2, 0, 4, 1, 0, 0, 0, 0, 0, 0<br/>0, 0, 0, 0, 0, 0, 0, 0, 0, 0, 0, 5, 3, 9]<br/>class = 7>, fillcolor="#e5a33918"] ;
416 -> 417 ;
418 [label=<gini = 0.0<br/>samples = 2<br/>value = [0, 0, 0, 0, 0, 0, 0, 0, 0, 0, 0, 0, 0, 0<br/>0, 0, 0, 0, 0, 0, 0, 0, 0, 0, 0, 0, 0, 2]<br/>class = 24>, fillcolor="#e55b39ff"] ;
416 -> 418 ;
419 [label=<Viscera.weight &le; 0.173<br/>gini = 0.625<br/>samples = 4<br/>value = [0, 0, 0, 2, 0, 1, 0, 0, 0, 0, 0, 0, 0, 0<br/>0, 0, 0, 0, 0, 0, 0, 0, 0, 0, 0, 0, 0, 1]<br/>class = 10>, fillcolor="#dce53955"] ;
415 -> 419 ;
420 [label=<gini = 0.0<br/>samples = 2<br/>value = [0, 0, 0, 2, 0, 0, 0, 0, 0, 0, 0, 0, 0, 0<br/>0, 0, 0, 0, 0, 0, 0, 0, 0, 0, 0, 0, 0, 0]<br/>class = 10>, fillcolor="#dce539ff"] ;
419 -> 420 ;
421 [label=<gini = 0.5<br/>samples = 2<br/>value = [0, 0, 0, 0, 0, 1, 0, 0, 0, 0, 0, 0, 0, 0<br/>0, 0, 0, 0, 0, 0, 0, 0, 0, 0, 0, 0, 0, 1]<br/>class = 20>, fillcolor="#92e53900"] ;
419 -> 421 ;
422 [label=<gini = 0.0<br/>samples = 2<br/>value = [0, 0, 2, 0, 0, 0, 0, 0, 0, 0, 0, 0, 0, 0<br/>0, 0, 0, 0, 0, 0, 0, 0, 0, 0, 0, 0, 0, 0]<br/>class = 9>, fillcolor="#e5c839ff"] ;
414 -> 422 ;
423 [label=<Viscera.weight &le; 0.16<br/>gini = 0.791<br/>samples = 53<br/>value = [0, 4, 1, 3, 1, 2, 0, 0, 0, 0, 0, 0, 0, 0<br/>0, 0, 0, 0, 0, 0, 0, 0, 0, 0, 2, 16, 14, 10]<br/>class = 27>, fillcolor="#e539610d"] ;
413 -> 423 ;
424 [label=<Height &le; 0.12<br/>gini = 0.669<br/>samples = 23<br/>value = [0, 0, 1, 0, 0, 0, 0, 0, 0, 0, 0, 0, 0, 0<br/>0, 0, 0, 0, 0, 0, 0, 0, 0, 0, 1, 11, 4, 6]<br/>class = 27>, fillcolor="#e539614b"] ;
423 -> 424 ;
425 [label=<Whole.weight &le; 0.658<br/>gini = 0.375<br/>samples = 4<br/>value = [0, 0, 0, 0, 0, 0, 0, 0, 0, 0, 0, 0, 0, 0<br/>0, 0, 0, 0, 0, 0, 0, 0, 0, 0, 0, 0, 1, 3]<br/>class = 24>, fillcolor="#e55b39aa"] ;
424 -> 425 ;
426 [label=<gini = 0.0<br/>samples = 3<br/>value = [0, 0, 0, 0, 0, 0, 0, 0, 0, 0, 0, 0, 0, 0<br/>0, 0, 0, 0, 0, 0, 0, 0, 0, 0, 0, 0, 0, 3]<br/>class = 24>, fillcolor="#e55b39ff"] ;
425 -> 426 ;
427 [label=<gini = 0.0<br/>samples = 1<br/>value = [0, 0, 0, 0, 0, 0, 0, 0, 0, 0, 0, 0, 0, 0<br/>0, 0, 0, 0, 0, 0, 0, 0, 0, 0, 0, 0, 1, 0]<br/>class = 25>, fillcolor="#e5393cff"] ;
425 -> 427 ;
428 [label=<Shucked.weight &le; 0.34<br/>gini = 0.609<br/>samples = 19<br/>value = [0, 0, 1, 0, 0, 0, 0, 0, 0, 0, 0, 0, 0, 0<br/>0, 0, 0, 0, 0, 0, 0, 0, 0, 0, 1, 11, 3, 3]<br/>class = 27>, fillcolor="#e5396180"] ;
424 -> 428 ;
429 [label=<gini = 0.34<br/>samples = 10<br/>value = [0, 0, 1, 0, 0, 0, 0, 0, 0, 0, 0, 0, 0, 0<br/>0, 0, 0, 0, 0, 0, 0, 0, 0, 0, 1, 8, 0, 0]<br/>class = 27>, fillcolor="#e53961c6"] ;
428 -> 429 ;
430 [label=<gini = 0.667<br/>samples = 9<br/>value = [0, 0, 0, 0, 0, 0, 0, 0, 0, 0, 0, 0, 0, 0<br/>0, 0, 0, 0, 0, 0, 0, 0, 0, 0, 0, 3, 3, 3]<br/>class = 27>, fillcolor="#e5396100"] ;
428 -> 430 ;
431 [label=<Height &le; 0.148<br/>gini = 0.809<br/>samples = 30<br/>value = [0, 4, 0, 3, 1, 2, 0, 0, 0, 0, 0, 0, 0, 0<br/>0, 0, 0, 0, 0, 0, 0, 0, 0, 0, 1, 5, 10, 4]<br/>class = 25>, fillcolor="#e5393c33"] ;
423 -> 431 ;
432 [label=<Shucked.weight &le; 0.389<br/>gini = 0.73<br/>samples = 23<br/>value = [0, 1, 0, 3, 1, 0, 0, 0, 0, 0, 0, 0, 0, 0<br/>0, 0, 0, 0, 0, 0, 0, 0, 0, 0, 0, 4, 10, 4]<br/>class = 25>, fillcolor="#e5393c51"] ;
431 -> 432 ;
433 [label=<gini = 0.685<br/>samples = 17<br/>value = [0, 1, 0, 3, 1, 0, 0, 0, 0, 0, 0, 0, 0, 0<br/>0, 0, 0, 0, 0, 0, 0, 0, 0, 0, 0, 0, 8, 4]<br/>class = 25>, fillcolor="#e5393c4e"] ;
432 -> 433 ;
434 [label=<gini = 0.444<br/>samples = 6<br/>value = [0, 0, 0, 0, 0, 0, 0, 0, 0, 0, 0, 0, 0, 0<br/>0, 0, 0, 0, 0, 0, 0, 0, 0, 0, 0, 4, 2, 0]<br/>class = 27>, fillcolor="#e539617f"] ;
432 -> 434 ;
435 [label=<Sex &le; 0.5<br/>gini = 0.694<br/>samples = 7<br/>value = [0, 3, 0, 0, 0, 2, 0, 0, 0, 0, 0, 0, 0, 0<br/>0, 0, 0, 0, 0, 0, 0, 0, 0, 0, 1, 1, 0, 0]<br/>class = 7>, fillcolor="#e5a33933"] ;
431 -> 435 ;
436 [label=<gini = 0.667<br/>samples = 3<br/>value = [0, 0, 0, 0, 0, 1, 0, 0, 0, 0, 0, 0, 0, 0<br/>0, 0, 0, 0, 0, 0, 0, 0, 0, 0, 1, 1, 0, 0]<br/>class = 20>, fillcolor="#92e53900"] ;
435 -> 436 ;
437 [label=<gini = 0.375<br/>samples = 4<br/>value = [0, 3, 0, 0, 0, 1, 0, 0, 0, 0, 0, 0, 0, 0<br/>0, 0, 0, 0, 0, 0, 0, 0, 0, 0, 0, 0, 0, 0]<br/>class = 7>, fillcolor="#e5a339aa"] ;
435 -> 437 ;
438 [label=<Shucked.weight &le; 0.294<br/>gini = 0.852<br/>samples = 515<br/>value = [0, 90, 54, 44, 31, 23, 16, 7, 7, 4, 2, 0, 2<br/>1, 1, 1, 0, 0, 0, 0, 0, 0, 0, 0, 4, 8, 102<br/>118]<br/>class = 24>, fillcolor="#e55b390a"] ;
342 -> 438 ;
439 [label=<Shucked.weight &le; 0.24<br/>gini = 0.888<br/>samples = 177<br/>value = [0, 21, 22, 28, 21, 15, 13, 3, 4, 3, 2, 0, 1<br/>1, 1, 1, 0, 0, 0, 0, 0, 0, 0, 0, 1, 0, 12<br/>28]<br/>class = 10>, fillcolor="#dce53900"] ;
438 -> 439 ;
440 [label=<Whole.weight &le; 0.671<br/>gini = 0.88<br/>samples = 64<br/>value = [0, 1, 4, 10, 13, 10, 6, 3, 1, 2, 1, 0, 0, 1<br/>1, 0, 0, 0, 0, 0, 0, 0, 0, 0, 1, 0, 6, 4]<br/>class = 8>, fillcolor="#b7e5390e"] ;
439 -> 440 ;
441 [label=<Viscera.weight &le; 0.149<br/>gini = 0.861<br/>samples = 53<br/>value = [0, 1, 4, 9, 12, 9, 2, 3, 1, 0, 0, 0, 0, 0<br/>1, 0, 0, 0, 0, 0, 0, 0, 0, 0, 1, 0, 6, 4]<br/>class = 8>, fillcolor="#b7e53911"] ;
440 -> 441 ;
442 [label=<Shucked.weight &le; 0.234<br/>gini = 0.868<br/>samples = 44<br/>value = [0, 0, 4, 7, 7, 9, 2, 3, 1, 0, 0, 0, 0, 0<br/>1, 0, 0, 0, 0, 0, 0, 0, 0, 0, 1, 0, 6, 3]<br/>class = 20>, fillcolor="#92e5390e"] ;
441 -> 442 ;
443 [label=<Whole.weight &le; 0.477<br/>gini = 0.87<br/>samples = 39<br/>value = [0, 0, 4, 7, 7, 7, 2, 3, 1, 0, 0, 0, 0, 0<br/>1, 0, 0, 0, 0, 0, 0, 0, 0, 0, 1, 0, 3, 3]<br/>class = 10>, fillcolor="#dce53900"] ;
442 -> 443 ;
444 [label=<gini = 0.444<br/>samples = 3<br/>value = [0, 0, 0, 0, 0, 0, 0, 0, 0, 0, 0, 0, 0, 0<br/>0, 0, 0, 0, 0, 0, 0, 0, 0, 0, 1, 0, 2, 0]<br/>class = 25>, fillcolor="#e5393c7f"] ;
443 -> 444 ;
445 [label=<gini = 0.855<br/>samples = 36<br/>value = [0, 0, 4, 7, 7, 7, 2, 3, 1, 0, 0, 0, 0, 0<br/>1, 0, 0, 0, 0, 0, 0, 0, 0, 0, 0, 0, 1, 3]<br/>class = 10>, fillcolor="#dce53900"] ;
443 -> 445 ;
446 [label=<Whole.weight &le; 0.608<br/>gini = 0.48<br/>samples = 5<br/>value = [0, 0, 0, 0, 0, 2, 0, 0, 0, 0, 0, 0, 0, 0<br/>0, 0, 0, 0, 0, 0, 0, 0, 0, 0, 0, 0, 3, 0]<br/>class = 25>, fillcolor="#e5393c55"] ;
442 -> 446 ;
447 [label=<gini = 0.0<br/>samples = 3<br/>value = [0, 0, 0, 0, 0, 0, 0, 0, 0, 0, 0, 0, 0, 0<br/>0, 0, 0, 0, 0, 0, 0, 0, 0, 0, 0, 0, 3, 0]<br/>class = 25>, fillcolor="#e5393cff"] ;
446 -> 447 ;
448 [label=<gini = 0.0<br/>samples = 2<br/>value = [0, 0, 0, 0, 0, 2, 0, 0, 0, 0, 0, 0, 0, 0<br/>0, 0, 0, 0, 0, 0, 0, 0, 0, 0, 0, 0, 0, 0]<br/>class = 20>, fillcolor="#92e539ff"] ;
446 -> 448 ;
449 [label=<Height &le; 0.142<br/>gini = 0.617<br/>samples = 9<br/>value = [0, 1, 0, 2, 5, 0, 0, 0, 0, 0, 0, 0, 0, 0<br/>0, 0, 0, 0, 0, 0, 0, 0, 0, 0, 0, 0, 0, 1]<br/>class = 8>, fillcolor="#b7e5396d"] ;
441 -> 449 ;
450 [label=<Shucked.weight &le; 0.229<br/>gini = 0.449<br/>samples = 7<br/>value = [0, 0, 0, 1, 5, 0, 0, 0, 0, 0, 0, 0, 0, 0<br/>0, 0, 0, 0, 0, 0, 0, 0, 0, 0, 0, 0, 0, 1]<br/>class = 8>, fillcolor="#b7e539aa"] ;
449 -> 450 ;
451 [label=<gini = 0.0<br/>samples = 5<br/>value = [0, 0, 0, 0, 5, 0, 0, 0, 0, 0, 0, 0, 0, 0<br/>0, 0, 0, 0, 0, 0, 0, 0, 0, 0, 0, 0, 0, 0]<br/>class = 8>, fillcolor="#b7e539ff"] ;
450 -> 451 ;
452 [label=<gini = 0.5<br/>samples = 2<br/>value = [0, 0, 0, 1, 0, 0, 0, 0, 0, 0, 0, 0, 0, 0<br/>0, 0, 0, 0, 0, 0, 0, 0, 0, 0, 0, 0, 0, 1]<br/>class = 10>, fillcolor="#dce53900"] ;
450 -> 452 ;
453 [label=<Shell.weight &le; 0.21<br/>gini = 0.5<br/>samples = 2<br/>value = [0, 1, 0, 1, 0, 0, 0, 0, 0, 0, 0, 0, 0, 0<br/>0, 0, 0, 0, 0, 0, 0, 0, 0, 0, 0, 0, 0, 0]<br/>class = 7>, fillcolor="#e5a33900"] ;
449 -> 453 ;
454 [label=<gini = 0.0<br/>samples = 1<br/>value = [0, 0, 0, 1, 0, 0, 0, 0, 0, 0, 0, 0, 0, 0<br/>0, 0, 0, 0, 0, 0, 0, 0, 0, 0, 0, 0, 0, 0]<br/>class = 10>, fillcolor="#dce539ff"] ;
453 -> 454 ;
455 [label=<gini = 0.0<br/>samples = 1<br/>value = [0, 1, 0, 0, 0, 0, 0, 0, 0, 0, 0, 0, 0, 0<br/>0, 0, 0, 0, 0, 0, 0, 0, 0, 0, 0, 0, 0, 0]<br/>class = 7>, fillcolor="#e5a339ff"] ;
453 -> 455 ;
456 [label=<Viscera.weight &le; 0.159<br/>gini = 0.793<br/>samples = 11<br/>value = [0, 0, 0, 1, 1, 1, 4, 0, 0, 2, 1, 0, 0, 1<br/>0, 0, 0, 0, 0, 0, 0, 0, 0, 0, 0, 0, 0, 0]<br/>class = 16>, fillcolor="#6de53939"] ;
440 -> 456 ;
457 [label=<Sex &le; 0.5<br/>gini = 0.625<br/>samples = 4<br/>value = [0, 0, 0, 1, 0, 0, 0, 0, 0, 2, 0, 0, 0, 1<br/>0, 0, 0, 0, 0, 0, 0, 0, 0, 0, 0, 0, 0, 0]<br/>class = 11>, fillcolor="#39e57255"] ;
456 -> 457 ;
458 [label=<Height &le; 0.127<br/>gini = 0.5<br/>samples = 2<br/>value = [0, 0, 0, 1, 0, 0, 0, 0, 0, 0, 0, 0, 0, 1<br/>0, 0, 0, 0, 0, 0, 0, 0, 0, 0, 0, 0, 0, 0]<br/>class = 10>, fillcolor="#dce53900"] ;
457 -> 458 ;
459 [label=<gini = 0.0<br/>samples = 1<br/>value = [0, 0, 0, 1, 0, 0, 0, 0, 0, 0, 0, 0, 0, 0<br/>0, 0, 0, 0, 0, 0, 0, 0, 0, 0, 0, 0, 0, 0]<br/>class = 10>, fillcolor="#dce539ff"] ;
458 -> 459 ;
460 [label=<gini = 0.0<br/>samples = 1<br/>value = [0, 0, 0, 0, 0, 0, 0, 0, 0, 0, 0, 0, 0, 1<br/>0, 0, 0, 0, 0, 0, 0, 0, 0, 0, 0, 0, 0, 0]<br/>class = 5>, fillcolor="#39c3e5ff"] ;
458 -> 460 ;
461 [label=<gini = 0.0<br/>samples = 2<br/>value = [0, 0, 0, 0, 0, 0, 0, 0, 0, 2, 0, 0, 0, 0<br/>0, 0, 0, 0, 0, 0, 0, 0, 0, 0, 0, 0, 0, 0]<br/>class = 11>, fillcolor="#39e572ff"] ;
457 -> 461 ;
462 [label=<Diameter &le; 0.407<br/>gini = 0.612<br/>samples = 7<br/>value = [0, 0, 0, 0, 1, 1, 4, 0, 0, 0, 1, 0, 0, 0<br/>0, 0, 0, 0, 0, 0, 0, 0, 0, 0, 0, 0, 0, 0]<br/>class = 16>, fillcolor="#6de5397f"] ;
456 -> 462 ;
463 [label=<gini = 0.0<br/>samples = 4<br/>value = [0, 0, 0, 0, 0, 0, 4, 0, 0, 0, 0, 0, 0, 0<br/>0, 0, 0, 0, 0, 0, 0, 0, 0, 0, 0, 0, 0, 0]<br/>class = 16>, fillcolor="#6de539ff"] ;
462 -> 463 ;
464 [label=<Shell.weight &le; 0.226<br/>gini = 0.667<br/>samples = 3<br/>value = [0, 0, 0, 0, 1, 1, 0, 0, 0, 0, 1, 0, 0, 0<br/>0, 0, 0, 0, 0, 0, 0, 0, 0, 0, 0, 0, 0, 0]<br/>class = 8>, fillcolor="#b7e53900"] ;
462 -> 464 ;
465 [label=<gini = 0.0<br/>samples = 1<br/>value = [0, 0, 0, 0, 0, 1, 0, 0, 0, 0, 0, 0, 0, 0<br/>0, 0, 0, 0, 0, 0, 0, 0, 0, 0, 0, 0, 0, 0]<br/>class = 20>, fillcolor="#92e539ff"] ;
464 -> 465 ;
466 [label=<gini = 0.5<br/>samples = 2<br/>value = [0, 0, 0, 0, 1, 0, 0, 0, 0, 0, 1, 0, 0, 0<br/>0, 0, 0, 0, 0, 0, 0, 0, 0, 0, 0, 0, 0, 0]<br/>class = 8>, fillcolor="#b7e53900"] ;
464 -> 466 ;
467 [label=<Whole.weight &le; 0.732<br/>gini = 0.858<br/>samples = 113<br/>value = [0, 20, 18, 18, 8, 5, 7, 0, 3, 1, 1, 0, 1, 0<br/>0, 1, 0, 0, 0, 0, 0, 0, 0, 0, 0, 0, 6, 24]<br/>class = 24>, fillcolor="#e55b390b"] ;
439 -> 467 ;
468 [label=<Length &le; 0.527<br/>gini = 0.835<br/>samples = 93<br/>value = [0, 18, 16, 14, 4, 1, 5, 0, 3, 1, 1, 0, 1, 0<br/>0, 0, 0, 0, 0, 0, 0, 0, 0, 0, 0, 0, 5, 24]<br/>class = 24>, fillcolor="#e55b3914"] ;
467 -> 468 ;
469 [label=<Whole.weight &le; 0.616<br/>gini = 0.846<br/>samples = 66<br/>value = [0, 13, 12, 13, 4, 1, 4, 0, 3, 1, 1, 0, 1, 0<br/>0, 0, 0, 0, 0, 0, 0, 0, 0, 0, 0, 0, 1, 12]<br/>class = 7>, fillcolor="#e5a33900"] ;
468 -> 469 ;
470 [label=<Length &le; 0.495<br/>gini = 0.617<br/>samples = 9<br/>value = [0, 1, 1, 0, 2, 0, 0, 0, 0, 0, 0, 0, 0, 0<br/>0, 0, 0, 0, 0, 0, 0, 0, 0, 0, 0, 0, 0, 5]<br/>class = 24>, fillcolor="#e55b396d"] ;
469 -> 470 ;
471 [label=<gini = 0.72<br/>samples = 5<br/>value = [0, 1, 1, 0, 2, 0, 0, 0, 0, 0, 0, 0, 0, 0<br/>0, 0, 0, 0, 0, 0, 0, 0, 0, 0, 0, 0, 0, 1]<br/>class = 8>, fillcolor="#b7e53940"] ;
470 -> 471 ;
472 [label=<gini = 0.0<br/>samples = 4<br/>value = [0, 0, 0, 0, 0, 0, 0, 0, 0, 0, 0, 0, 0, 0<br/>0, 0, 0, 0, 0, 0, 0, 0, 0, 0, 0, 0, 0, 4]<br/>class = 24>, fillcolor="#e55b39ff"] ;
470 -> 472 ;
473 [label=<Whole.weight &le; 0.666<br/>gini = 0.841<br/>samples = 57<br/>value = [0, 12, 11, 13, 2, 1, 4, 0, 3, 1, 1, 0, 1, 0<br/>0, 0, 0, 0, 0, 0, 0, 0, 0, 0, 0, 0, 1, 7]<br/>class = 10>, fillcolor="#dce53906"] ;
469 -> 473 ;
474 [label=<gini = 0.832<br/>samples = 32<br/>value = [0, 2, 7, 9, 1, 1, 3, 0, 3, 0, 1, 0, 0, 0<br/>0, 0, 0, 0, 0, 0, 0, 0, 0, 0, 0, 0, 1, 4]<br/>class = 10>, fillcolor="#dce53914"] ;
473 -> 474 ;
475 [label=<gini = 0.768<br/>samples = 25<br/>value = [0, 10, 4, 4, 1, 0, 1, 0, 0, 1, 0, 0, 1, 0<br/>0, 0, 0, 0, 0, 0, 0, 0, 0, 0, 0, 0, 0, 3]<br/>class = 7>, fillcolor="#e5a33949"] ;
473 -> 475 ;
476 [label=<Shell.weight &le; 0.206<br/>gini = 0.722<br/>samples = 27<br/>value = [0, 5, 4, 1, 0, 0, 1, 0, 0, 0, 0, 0, 0, 0<br/>0, 0, 0, 0, 0, 0, 0, 0, 0, 0, 0, 0, 4, 12]<br/>class = 24>, fillcolor="#e55b3951"] ;
468 -> 476 ;
